{"layers":[{"size":150,"neurons":[0.7372549019607844,0.7254901960784313,0.7176470588235294,0.7450980392156863,0.7333333333333333,0.7450980392156863,0.7294117647058823,0.7686274509803922,0.7333333333333333,0.7333333333333333,0.7372549019607844,0.0,0.7333333333333333,0.0,0.7568627450980392,0.7333333333333333,0.7372549019607844,0.0,0.7411764705882353,0.0,0.7333333333333333,0.7529411764705882,0.0,0.0,0.7294117647058823,0.0,0.0,0.796078431372549,0.7294117647058823,0.0,0.7647058823529411,0.0,0.7294117647058823,0.0,0.0,0.0,0.7294117647058823,0.0,0.0,0.0,0.7294117647058823,0.0,0.0,0.0,0.0,0.0,0.0,0.0,0.0,0.0,0.7450980392156863,0.0,0.10588235294117647,0.0,0.7019607843137254,0.47843137254901963,0.0,0.0,0.0,0.0,0.5607843137254902,0.0,0.0,0.4,0.5529411764705883,0.8862745098039215,0.0,0.0,0.0,0.0,0.24313725490196078,0.0,0.0,0.0,0.0,0.0,0.0,0.0,0.21176470588235294,0.0,0.0,0.8705882352941177,0.0,0.0,0.8588235294117647,0.0,0.0,0.0,0.0,0.0,0.15294117647058825,0.0,0.0,0.0,0.0,0.0,0.0,0.0,0.9058823529411765,0.0,0.8784313725490196,0.0,0.0,0.0,0.01568627450980392,0.0,0.0,0.0,0.01568627450980392,0.0,0.8784313725490196,0.0,0.9450980392156862,0.0,0.0,0.0,0.0,0.5411764705882353,0.0,0.0,0.9294117647058824,0.0,0.0,0.0,0.0,0.0,0.6470588235294118,0.0,0.0,0.0,0.6352941176470588,0.0,0.0,0.0,0.0,0.0,0.0,0.0,0.0,0.0,0.058823529411764705,0.0,0.0,0.0,0.0,0.0,0.0,0.0,0.0,0.0],"biases":[0.716071229092317,0.35035704885696584,0.8714402290081849,0.9207244121291802,0.5575215481182509,-0.12014093108959334,0.6209342632928392,0.49776969961193673,0.5651215726391516,-0.548794098320899,0.6732539618057378,-0.45969927375987063,0.4517775798408714,0.13288225437507606,-0.44940841917161056,0.18102486096408787,-0.6978266845284744,0.8056025649563423,-0.5794620505591954,-0.7449001099264061,0.40117101702396196,0.40731008551748715,-0.5142894395818904,0.5706309375737546,-0.5478620863816268,0.11053550414710855,-0.7542412834336265,0.1127791700537879,-0.1072224160975761,0.9155748430124031,-0.9175086852955832,-0.3028331569376559,-0.8569988952400767,-0.5269761009353684,-0.7229263538953832,0.6995937422957923,-0.6911759011920471,0.3417857034298404,0.7889455045668767,0.662906811312094,-0.8817701406668828,0.34374365749019153,-0.09068636038523104,-0.18180612271907592,0.6793913761334944,0.19387339983686114,0.2477759940587856,-0.14370049347084435,-0.9714011025040561,0.16464293265173002,-0.5811619036307607,-0.35301019197462535,0.37469196003969096,0.18612955575593793,0.2657848396497404,0.026921279898188155,0.4487483114078712,0.48835937040975685,-0.5074258228591189,0.26389611456590467,-0.5677642320946052,0.6599547846922398,0.17012228385697825,0.35371536467406517,0.5637850616293489,0.8272514386523404,0.7415532500269089,-0.08273110445155685,-0.2858040458854809,0.5506266448582209,-0.12831119504991761,0.13932964347189758,0.9712413027078801,0.9898567054910281,-0.23074293454233286,-0.07315254456474585,0.5902873718267221,-0.0920987418141963,0.4560031163292586,-0.7366342518235529,0.5437012487711925,-0.8374107153509687,-0.1349144108597291,-0.402486415598583,-0.6585298331583853,0.478259817364983,-0.3781514304068738,-0.9726484549131509,-0.20259036149686938,-0.5055108790815652,-0.10674014035081458,-0.9713192594184261,0.9797913431399856,0.35661344727243893,0.7880102737509467,-0.4757501001718296,0.7121742702820242,-0.5571647106257263,0.44747178451260017,0.20212545177847208,-0.32032383634052186,-0.7847214763025061,-0.8115845408989637,0.16531620677939518,0.4478747578863198,-0.36256352703943984,0.8415931239195802,-0.7689262321651107,0.5159825686149222,-0.8819650230441518,0.7759898303639603,0.4971166685785309,-0.09710950091212478,-0.47858972940453826,-0.9932427104696142,-0.8466450235276526,0.7041305792288826,0.4270801452344237,0.25554218427251807,0.9415206002159706,0.5597596052063469,0.5262645749165189,0.8651249409162391,-0.8485647203122484,0.03761940724663071,0.8106904519380123,-0.9340102767172729,-0.40852139083364336,-0.43661751570035046,-0.9609070450648332,0.25064720082602787,0.5821437776218077,0.7182449682579999,-0.14059606618294596,0.6322370111600726,-0.30460041665663296,-0.5229186954767246,-0.08030300040061644,0.9471381423584777,0.6989033824845492,-0.7256702407588924,0.31853534280427875,0.7070201825413633,0.9629387108567067,-0.3381714316025446,-0.17455206993723582,0.9139695198710938,-0.5507207670307501,-0.23772170991127006,-0.5551627791314342],"weights":[[1.0580024310492075,-0.1736848261311893,0.34291557027829467,0.34199671276395555,0.18116468723987184,1.2319075995213824,-0.3624092738183401,0.49997309268270607,0.46640310004194624,0.482047351876978,0.7481750715564979,1.2695680750722997,1.1433385197232753,-0.2772968756615224,1.1418239022260088,0.7344094368352797,-0.3940276796397513,-0.7414663372877429,1.1989115207711754,-0.08745035732958852,0.8686936464886372,-0.5224776010150983,0.5267720047519264,0.9259868342915399,1.3304130128484573,-0.3628199902705611,0.5378249710924505,0.5803165896248204,0.5924740254303482,0.47770583798623417,0.5793917355404749,-0.46372085463914614,0.7474728661414646,-0.7144116382999907,0.5480335083186544,0.3165356210867068,1.6695512088299458,-0.3513903852898451,-0.033145569957492294,0.6286670055760056,-1.3885504721082167,0.43953972839336547,-0.4563778147886349,1.1945713079892486,-0.847528810250399,-0.6903969781127952,-0.17001743301021016,0.050784837987425224,0.06764652382576991,-1.6826906998139965,-0.8363667043306272,0.7209318983406693,-0.4889342139558868,0.8541156684266462,-0.2884002162367777,-0.016283225448560677,0.9754466141123973,0.30984043323958704,-0.5778491575214076,0.347242123559909,-1.397502637451007,0.06092000850313628,-0.1493121309762761,-0.26745322268865623],[0.38963905030041895,-0.3684699460924901,0.5010837015028772,-0.6511184334378589,1.2021842183162579,0.8596082671518147,-0.10923200885746151,-0.03870034554708575,0.20224486383910206,-0.5767949049307236,1.0567835846802267,0.6862437705278023,-0.7200835994571219,0.7519571808284365,1.3165297599334658,0.22454030755754878,0.3628704738507992,0.7831036018096212,-0.48192018355227334,-0.09311293583522953,-0.23885579855185546,0.022939865209299987,1.080674345056688,0.5098743732580664,-1.1121201009524933,-0.3759206582488134,1.1502896029325944,1.174926734360069,-0.7946688401344484,0.9525859472319446,-0.7079333557140916,0.08458574773535799,-0.8468800663930885,0.9863715235632495,1.229545371133935,0.3077470083285597,0.40302553598406193,0.815266129600319,-2.1476260977333084,0.11549521107708555,0.318619070097901,-1.0399930199815663,-1.1280654667787253,-1.6662197121747067,-0.6610349958031541,0.2920431522314408,-0.6906814086460406,0.7127023940462806,1.02244179098834,0.18169414060514463,0.02942072114668742,0.5956980436938497,-1.7315286690519531,0.2903547269560833,1.065727393973054,0.352093480065155,0.28016684944394077,0.8665753609586017,-0.718288188168341,-0.22389282133997104,0.18279868973644714,1.2365844615072246,-0.5711995495048934,0.9714370181003609],[0.8620695959988273,-1.2028546930532924,0.07315566479593026,-0.02278079841008242,1.491683199548736,0.9468182755598363,0.21263777676395446,-0.10474747974201956,0.9712446098957747,-0.15716133987099207,0.9678553346047333,-0.34805181554308673,0.3751952453387694,-0.403116134643809,0.4386546785318511,0.7125860831576147,0.33168220090693096,-0.3562592917766481,1.3912787269990043,0.8421909005988635,0.5051794329900483,0.21912465712233792,1.2634966673762897,0.04392249790906731,0.3717392686587775,-1.3807261922141472,0.13374532422932972,0.4393691577750069,0.3108894055447505,0.4625388360427619,-1.3972678354774173,0.8217076277522715,-0.1142861921097946,-0.17086934192197314,-0.09328935660739737,0.8917273801558271,0.25171176624520636,0.2279143355825805,0.9210099177730834,-0.406598180283229,-0.15221711730410908,-0.6512808556674252,-0.25854565319091777,0.5885456179637055,-0.42099999934715726,1.0204280585593697,-0.49675312633283,1.022362232809649,0.34990864392461246,-0.797687040805398,-0.16780550234902086,0.011410398442393855,-1.3546306560604033,-0.10375590179914117,1.1666473057856743,-0.7009380008789007,0.785126489693773,-0.06054159149234883,-0.13171213591238945,0.0038313712533258734,0.012095904869916104,0.059127174705696756,-0.4950028066130695,0.1227622565924621],[0.28382920152999824,-1.078265329448005,-0.044758286264726055,-0.09264145473004759,0.2487061426672093,1.0503522581060274,-0.44689185460272324,-1.1868145554570317,-0.9394670342649302,0.8934835245797755,1.062574079764044,0.11516640524264624,-0.36461560973871776,0.7173968609285882,-1.0665323882086615,0.7244353009060832,1.1455745211983637,0.6389840790603613,1.3949886431302045,-0.37817917207830826,0.8980595188197786,0.8371751977853418,0.3456214232268686,-0.35982379810135695,-0.14659542097437137,-0.2734756991603416,0.16984176994115552,1.2977595182108754,-0.833844261950333,-0.09519301230850867,-0.0983557359774282,0.20429214122492267,-0.7873407402610272,1.1929558453008589,1.2473366613694694,0.7114429604852747,-0.5203037696473053,1.1204968106609816,0.13447785900701592,-1.5103174678370062,1.0350854302675616,-0.0697173028983323,-0.5648385895701471,-0.1110261730014419,-0.2520479928396573,0.8208318405336048,-0.5675445535339484,0.36712682145560155,-0.4790309761448185,0.2770197214790046,-0.6520442886326457,-0.13107603348375935,-0.46515024034386454,1.461740495414907,0.8063223880147149,-0.9652633419761705,-0.04008172378898713,1.4748490753200094,-0.06323243379537391,1.1315570760018883,-1.1923410060095618,1.123463240118884,-0.8014603616296657,-0.04657285023539526],[0.43554344080613944,-0.7325845331354653,0.1867821141514695,0.5188042431515758,0.345004483652732,1.1690539849174562,-0.7673908032535212,-1.3951127372972247,0.04787048939318044,-0.508651171449007,1.1947032253608372,0.20950373367618788,-1.1035267488899114,0.3638689058755651,-0.11634284714165262,0.25941024430905557,-0.24936773078661104,-0.7554794482832756,0.1706766944253717,0.23124808977434264,0.44990857377719934,0.9488996341307266,-0.12100281350710532,1.0790064156481085,0.13678146400055935,-0.3482064233733565,1.1127803602512911,1.0054264097150116,-0.33186582741573495,0.9748093885611314,-1.0822553660757626,0.23713032977545764,-0.4608678063642944,0.8670496427762445,1.1830053206297488,0.5017280636646717,-0.10813338736616605,0.8484745321889438,-0.776617219785931,0.4594928024774974,0.22424237044554662,-0.5387009453927343,-0.05524565591093137,1.0714865941456413,0.12918763333185646,1.2539582740434663,0.904755490226251,-0.11320843791423743,0.9106399300251795,0.10154089368446453,0.11102177959350602,0.9363001564459115,0.4449286607718133,1.5914851088845419,1.04811788098045,-0.2834033590031849,0.6146866435840194,0.7167834403500364,0.5736939292911141,-1.0335533099883183,-1.1437257941430898,-0.35748502328782233,-0.4358867998300644,0.883341111671693],[-0.23786647727967106,-1.24241985167673,-0.3790227853512239,-0.933086207969007,1.3416607881923515,-0.015946077251632603,-0.5189203424784843,0.6127783187576116,0.026627876794226967,-1.182188473480639,0.2742238140929248,0.3765331038679823,-0.20169619700581592,0.8243703961648118,-0.2319296660418655,-1.0524631182640594,0.6083257368684577,1.1229040319012253,-0.8577699043356567,0.02749770684401773,0.5274221431590088,-0.20690940614968156,1.0543009302701802,1.4042561217317173,-0.7976405118951767,-1.0705485478429144,0.2705446191894757,0.8869551626786488,-0.8732655851891328,1.071500426710285,0.043516744017311905,0.5358496225305274,0.06895780030331052,0.31214083750874877,-0.3702571302977445,0.053431489474964934,-0.2265070064994115,0.5139056974132318,-0.21342126919256785,-0.30852045468062583,0.4583092209678929,0.438485859879452,0.01294762331528507,0.26032972958228934,-0.9663048626648515,1.1597596306016271,0.22159966653214075,0.6116527474120063,0.046745061065845195,-0.14726557073020594,-0.33447943234203265,-0.36945759663913885,-0.08409376239772964,0.5314682213876529,0.1435051884426327,-0.1275171036832745,0.6892408015821277,0.2221211615616352,0.7060854837926073,-0.31033313052058614,0.8677171950359844,1.5278679087323148,-0.6855050285722576,0.5258123641064882],[0.6516904118058494,0.27861179853473345,0.37830686135169744,-0.8415806627219394,0.2280237345283486,0.7116027214597949,0.6368799685184104,0.4737986281529317,0.1366282991631326,0.9414791256708899,-0.46262386677502243,-0.6353277689810908,-1.0750377753348146,-0.5785544956303225,0.6027288268867569,-0.025516264000013236,0.8587289241343213,0.1993169448323829,-0.9675180536639507,0.8491075395686457,0.6691648254591867,0.8590504533558794,1.2696872126257357,-0.11695043950311071,-1.036153631190741,0.33921888419288093,0.5350485260552938,-0.39631180277052136,-0.7013615202168134,1.1106723237160276,0.2864074615346504,-0.15526729681523702,-0.9637203032428681,0.765783194412432,1.1268865157598411,-0.5729028284242659,0.24774715464842828,-0.51564432352007,-1.7073351728538548,-0.19692939012658847,0.8203028038624429,0.23982366419903972,0.9580689374951065,-0.3766930203949088,-0.09742244060777451,0.9078174202429986,0.9584343450832045,-0.3222935971317507,0.8853907910776657,1.3303536093206714,-0.4875933896309538,0.5897855062355087,-1.651027833331264,0.6013345751279849,-0.18744727209919432,0.41709266541324586,0.17507316825741118,1.0212763111761638,0.27332007537020586,-0.3015576778849744,0.7058041444114279,0.68633151831578,-0.38320391665099846,0.3536154228236528],[0.255674906093659,-0.43085857296463653,-1.00434029016628,0.33380763480175085,0.07069083873808649,0.487874464921973,-0.025935147734258663,-0.9577405583744937,-0.650566975302259,0.5384694424992175,1.1361552984040946,0.66852063038665,0.13341843885289487,0.18483381656256834,-0.9438142745521236,-0.8187130377366721,-0.387247392761566,0.4046588592517512,-0.5190138490305476,-0.10429998445310584,-0.24461081692680373,-0.5201618404716485,0.5758696974300156,-0.3645464843412406,-0.2096660883210898,-0.04291894635145761,-0.4443173097807794,1.3390945282926012,0.5995157704262138,0.016692505357151288,0.6616366046927974,0.9995096173242822,-0.02671198257405951,0.3800765722977351,0.8198925377484463,0.6439478814046204,0.30434505187681643,-0.18636971375307987,-0.8916533365034196,-0.9989672114009914,-0.21110015490906894,-0.25253898560445026,0.4148445358374623,0.7635768573831198,-1.1882933493348595,0.11120830097383134,0.31988493087479053,1.270004727055985,-0.007404647807754893,0.8889273910521711,0.5092365597933026,0.8174997338850034,0.21909372443496458,0.7164519090474301,0.5232390258887623,-0.055592704085928354,1.2146944692169024,-0.4527659274450781,1.1890299875991674,-0.05842543104186638,-0.2523875544489643,1.1795244210038258,0.25389444876867656,0.12309176792925462],[-0.09325306195283437,-0.5413316484896377,-0.11576504266627352,-1.2484152875508143,0.007489307927931513,0.15147128066972537,-0.6804662325300141,-0.26349914932378926,0.8747064716379239,-0.12002539797579187,0.6730146552179012,0.5308815064894319,-1.0006440259038907,0.8212746735834113,-1.2899495545132287,0.039146196388834126,0.289086430805549,1.3130287995171994,-0.3843290654263975,0.7627829693528752,-0.03536573103520098,1.1291150657226223,0.06624708504835836,0.07521950780599451,0.01939417314468233,-0.964851636878158,-0.42538304577435776,1.1157165541580936,-0.19917922112538408,0.5242239917082986,-1.2325391307421052,0.6416764056882577,-0.24271743098038923,-0.5664972947557892,-0.011550184061292344,-0.0950682324577032,-0.34117553696547037,0.4797197283934895,0.03359509086833993,-0.7574780381353032,0.4620728110952941,-0.26153359794355835,0.1666014936837926,0.31574054941695484,-0.754811410995563,0.9615927436315937,1.1601406552956168,-0.12899722534285687,-0.30254860465400074,0.7110050786185965,-1.2463905832761546,0.7243845207149808,0.02557681180082737,0.1815121025212902,1.4579121133707382,-1.8524373338180604,-0.02411054645979711,1.1206351909016918,0.9060326033061404,-0.4748287426109451,0.2159079185129613,0.6832493311158112,0.7056580219820671,0.057868371980521],[-0.6169853011480193,-0.8315520405330081,0.18836011018855817,-0.32172415692228734,0.25396965549029554,1.8430487127940995,0.655796245516058,-0.3671084970661375,0.475003789564578,0.5234881812561875,0.23372675810559815,0.5259893514579544,-0.31402806139932554,-0.2731855471684341,0.03643927782721407,0.28578010568655643,0.22710394999165062,1.2337766554061493,0.24754486105450907,0.3853489054765662,-0.2870822396430749,1.4893271525939502,1.0441897292874003,0.8528352299877334,-1.335803082735309,0.35222922387503425,1.0707168891084515,0.2876809642373098,-0.5019303964288344,0.08524926155221521,0.37890534202199644,1.3505666254642514,-0.6501508478629847,0.20189215087306475,0.6589002224323408,0.8691793374900262,-0.6180316403002617,0.9367032115197829,-0.5346506495958426,-0.9471563395297682,-0.36454788459992343,-0.15264794321576994,0.009211638238476452,-1.5279614530644507,0.30006253159022533,1.1959988092084368,1.2935632116095754,0.9300151384991561,0.9910082000839626,0.1695546875363221,-1.3813742260839559,1.3857505414903941,-1.6078484729938785,0.18372439132018195,0.0612643981696883,-0.9397369878010716,0.02579212319060189,-0.04268193772193105,-0.17345842865236924,0.22962849453464873,-0.6263256719598036,0.2345955977353506,-1.1159321339725579,0.569228550743383],[-0.8487517010956218,-0.15047531142695353,-0.4695195111254735,0.4515527445221846,0.6196945249902722,1.0167734285093712,0.6755804930731655,-1.0481824914662963,-0.2660923008106486,0.15167074948664594,0.07160130696105342,0.8379188033547486,0.24177621893036816,0.34148347230193754,0.7163922292722534,0.8738147391860215,0.05379896616559017,0.8548426034583403,0.15487447685474734,1.0951939424335355,1.3680641220604628,0.32810894027263615,0.8827501905641316,-0.35174845423159723,0.06533637197301771,-1.3013524989682277,1.293704445247205,-0.25672743893608985,-0.13443654343794442,-0.26093503695146764,-0.3096207366963136,0.1542906319248271,-1.0995733793571292,1.3301454943886153,0.9629494511249027,0.9127230583497388,-0.6690263751287167,-0.5266673420502206,0.3206661784591068,-0.49668023706781894,-0.6090048656169865,-0.9775601987654923,-0.4332016577745587,-0.9273773224415922,0.2926633733234632,0.4604288560148085,1.2669990795149009,-0.2368448429822084,1.1577119672167555,-0.0467493804285063,-1.1817105355131388,0.37502817982199393,-0.3935559092260677,1.3738315450867458,0.5255528079932396,-0.2402183566742851,1.0512996113729791,-0.26190453761281074,0.04368610636364925,-0.5758256631448201,-0.8695837552714013,0.7671459811999082,-0.3583501806892512,0.04522295825132529],[0.5678530556778688,-0.1253515769231497,-0.600343968744549,0.2334623838926721,1.0691369953713807,1.0182077862900325,0.8877113398656854,-1.374476932833977,0.7245087663902654,-0.24160858169634883,0.3398874988664734,0.8148685988547208,-1.1575101686738483,0.3506657360513514,0.06973519100396453,1.060168763235223,-0.5092246778682682,0.7167025950426692,-0.7507311541438776,0.8692256670738657,-0.015372567763413728,0.9235193709730788,0.9119760954009066,-0.5669697984489229,-0.5107479558938849,-0.2610929799269725,1.0528695557616978,0.641567775603597,-1.6041016621118522,1.3370244403814426,0.24958556755391043,-0.17498407897552204,0.004900159231331396,1.0472269259177776,0.5897444219431185,0.6762818695465199,-0.388689851293997,0.3466982342052496,0.14005458304286256,-0.5152935681836824,-0.2579944101714637,-0.8323206406805,-0.9676802369761822,-0.011388880262157576,0.05303182617870389,1.3953016354442953,-0.4757005189301916,0.5854217658380926,0.62552899804479,0.2775325549589244,-1.0880894621880215,1.110747448459033,-0.8341044555830615,0.8396487698829451,-0.08920754363186292,-0.26051390967572663,1.461476287233558,0.6525454372212004,0.25775770306584933,-0.505996739976348,0.18396042395935308,-0.5572354546238201,-0.14163228062050684,-0.26616742078581535],[0.7283506500495741,0.7498977091122504,-0.8597484657843392,-0.44824338918955914,0.7213284810300671,-0.7116693912317076,0.8114981773424087,-0.1277637882306701,1.377534834303719,-0.7602639884242911,0.05512690307828202,0.7799416742889774,-0.40813770415738115,0.47422042147646726,0.8015282658842777,0.9266345403985178,0.024875825789728873,-0.08361385814442172,-0.32634110726788434,-0.6062738019146839,-0.8125351809831671,-1.0975991801091582,0.10056071830543176,0.1879001812582863,0.16753512759050684,-1.108416103099228,0.21433384534656955,0.19831458092237805,-0.3239963712079411,1.3132555912847974,-1.2521789886007149,0.3080030341257657,-0.3636863459854496,-0.2670908405160626,0.272639600340528,-0.008507125562563335,1.140844185028475,-0.1235181250989068,-1.3259186559345213,1.102076439259398,-0.9042396923342456,0.3808393863050037,-0.8675796876275675,-1.337415941266005,0.24011167326056043,0.3606435291140805,0.6785996144216885,0.4084298967143814,0.9465215674940284,-0.827358173524076,-0.25914753678201735,-0.28560913278303623,0.05214681494181415,-0.17462169833622992,0.8850144179537044,-0.1941279356788239,1.3089771726264312,0.9523433905706497,0.05809811007692886,0.12222776393814522,0.25278545237074956,0.09786938244738876,-0.8204957231447277,0.9147025642204574],[0.785341107653324,-0.686694022387525,0.30963084033573524,-0.2667245490170994,-0.32469654528549463,-0.8621670350072748,0.07116949502447709,0.1866210449303533,0.7967169674075434,-1.1868604040774429,-0.6935886543506475,-0.06791533934112957,-1.3081147704234881,-0.6223145430221442,1.1247042598873396,-0.8290694155466692,-0.7630929816317111,-0.9529832740706456,-0.15863587692638842,-0.3100013692069404,0.04770198630719567,-0.49435291370942597,0.12366027308676189,-0.36989537130454436,-0.5418640200098507,-0.5620599303626178,0.3378058017896547,0.8387821771670515,0.3837026778417584,0.14342830561145894,0.36054956115777054,-0.322195181064069,-0.013931272493571996,-0.09119182529555277,1.1384005330837867,1.0775138553217982,1.126788773204384,-0.9200466047056669,-1.7955764800150986,0.5509205770296326,-0.2288067935500303,0.19118697329043968,-0.6546150365822031,-0.1919306990177597,-0.5532500864302835,0.3996019688349818,0.7880556634817019,0.9698313973077208,-0.11223450612830183,0.1896424766583525,0.13207590694478616,0.7525208065997024,-0.3039098343471418,0.45854287234436936,0.9115040468072734,0.5912776670931772,1.1883122345418644,-0.40157945547365,-0.5941283483257312,0.3242705357198661,-0.6865827099966894,-0.1238603711325535,-0.6861383778094633,-0.5303257770222805],[-0.24884402334682706,0.07983619739880579,-0.6993510906853251,-0.9472770528765793,-0.062495502281924895,0.843791322944881,1.2043746836017772,-0.9377267980328362,0.3656802664924132,0.12077487308857174,-0.25839746012341763,0.6619620256901773,-1.247837955328617,0.3078522675869458,1.3026854235311365,0.8966048053985961,-0.6304136168816374,1.1336131535874148,0.04189814429764484,0.8720142689607707,-0.9434684514530559,0.23003304416984174,-0.4135857650317741,0.009999860420535928,-0.7658693160016067,0.7605129472123012,-0.5022166212178175,0.3255923768319216,-0.6318226320163294,0.23964084568873703,-0.38839266392048916,0.0933292830794832,0.02884746057307178,0.4425555068437171,-0.6714901781303778,-0.2265090347158505,0.5991952174932142,0.7547768127398122,-0.005552597523022211,0.5274922184560027,1.05693350521282,-0.84860273225313,-0.320984110445546,-0.6189304184057126,0.6481049974610268,-0.8036045119391524,0.8966125119272004,0.27924311041546773,-0.7002927656974396,1.2543807848081934,-0.47334644351548644,-0.13472815141475103,-1.2198598886406151,0.775719826471565,0.866191662803771,0.7943457942440019,-0.7196370335625774,-0.4562849531047817,-0.9193251022450173,1.0912418260464885,-0.6676218017995313,0.6629085935223701,0.7254069872695359,0.36690789564422555],[-0.7751883085385939,0.7900744981403697,0.7582453069227865,-1.0387569181591745,-0.9382847807400203,0.28407022395862463,-1.4699973688738708,0.3635551150864229,0.03224370807184522,-0.17645778812753576,0.19719674781709917,0.4872337171186952,-0.25606547866214463,-0.106031369654927,-0.11205000708177472,0.4640735512719584,0.7736969624100821,0.26854709781069414,-0.5186599696814834,0.8996223941682456,-0.760775962544936,1.3278873096018367,-0.45536831795393296,0.6891888665211194,-0.7134989658515206,-0.6284722912340515,-0.39229724179906067,-0.2296622094174389,-0.147614680308524,0.3635368080227114,-0.26447647789452167,0.9393630423136086,0.10402127207258363,-0.6737270392970861,0.5531527139159017,1.0459538328258051,-1.2295178508505658,0.3779934327392787,-1.2656500282529546,-0.9943467965137595,-0.3881476815064841,0.5012343983305662,0.36412623508240144,0.38263955980113945,-1.0524859893082223,-0.6479370008581847,0.2953962574254406,0.6414569737893531,0.9927295809521064,0.7797943007802197,-0.2324932773146551,1.023411430611524,-0.2794466550347667,0.6851050950916935,0.6290408855204552,0.16109253167443532,-0.48712634915786035,0.9994475649973944,0.935664096386098,-0.5032945853449158,-0.8976820939375498,-0.15229719362944638,-0.7056908857501712,0.7498409363485414],[1.6016403039983569,-0.25381420498515234,-0.34900633515507967,1.7001191126308395,0.1744839291285677,-0.6382849782656477,-0.25096294810108666,0.01032350090749942,-0.6918140005441279,-0.35694695000446786,-0.0344189857698899,-0.6151362810058919,0.9066379953226202,0.25487408007680984,-0.7825122335201137,-1.268018957680054,0.6588219715440494,-0.3374296885789997,0.804435626058436,-0.16020114500287383,0.005752446159416103,0.25893010082615864,-0.1570801402447224,0.02934039765582312,0.9964292334358245,0.13215077694891453,0.7076251817733747,0.4084359239599277,-0.4875629049544408,0.675408306110784,-0.49351432251847255,-0.5136716852494722,0.046066896279185934,0.008905718684206481,0.4951773892573446,0.38402717434223765,0.32477878355840706,-0.18365468682209643,1.3896191867459682,-1.4174783279597971,-0.17938228876575438,-0.35091259226304256,-0.5043480804829227,0.42185391035727626,-0.7768233529959181,-0.8082717004791452,0.5930244937927831,1.1816462816151532,0.6847807403544179,-1.2255490827249895,-0.5268595870179563,0.5009157208914783,-0.09016187348882096,-0.4740011612453647,0.4384980622736173,-0.12145593964270873,-0.3565201977274508,0.9940469641701881,0.7342091334973212,0.14003736663367566,-1.0859403167786728,0.5463649424633958,-0.17243507448300227,0.9425562216244848],[-0.4273339752954841,-0.8106019101843409,0.8922873219101026,0.6487393218563946,0.9101504154142992,0.3442070489252771,-0.8562640578252312,0.08923091903784774,0.3964692629140534,-0.7552710694340512,0.3906950890745007,-0.517111559986476,0.34863234981631264,-0.8936976925057833,-0.7159183414297188,0.7100633678636705,0.9640761513773928,-0.5695804476812623,0.7430823145305268,-0.27321279015477984,-0.5165263784427379,0.26813299082332787,0.3067689324514249,0.9950488751718463,-0.7462464010128165,0.5415832445750066,-0.6174637705385859,-0.05636360157451947,0.24754290584556093,-0.2676949120515171,0.9563633951095398,0.19105100772056627,0.503447829293435,-0.3937061268993751,-0.7306437818755238,0.9045770248479799,0.42229447686482646,-0.9303571151959267,0.4669774326052649,0.37467025052403424,0.887650914555101,0.7348918258282264,0.29182787591903137,0.6514061294338831,-0.22534322239480664,0.3270523270180834,-0.48220717538976254,0.9198057956857177,-0.43061049955695485,-0.33039241968059896,0.012822126904688202,0.18343762933778862,-0.4583007481768857,0.6646078973963125,0.0695646827456462,0.7807689934180069,-0.8023522008439834,-0.5826848050024303,0.9575322031005868,-0.7236785189537733,-0.41661013765673083,0.45467556735114467,-0.47258069924157997,0.348761167927357],[1.8442053533411678,-0.14233382989016535,0.35945407615747266,0.6725023487289369,1.3856134174477635,-0.5614240115975664,-0.1246741263568505,0.2426385088572842,0.5878403925092097,-0.7371227590713876,-0.2285940216068196,0.32333934128350983,0.8955051588184593,-0.23489083430850421,-0.03864083296323126,0.24857091465554543,-0.10560380348510655,0.21448588268809773,0.8777934732923471,0.5935289060940914,0.9723573546104052,-0.7574733526721317,-0.11886977409716429,0.8287556065008945,0.7584462297359973,0.1928623611189182,0.636754137089662,-0.26068275087919623,0.6477764144323412,-0.036207807468841245,-1.0646444862174311,-0.14864109282590787,-1.014277702341691,-0.6093710788078562,0.8919281849086681,-0.27135063779844737,1.3257943771322422,-0.05035765572774849,1.0675432787131136,0.3647230971704318,-0.5589812265842203,-0.7271362494558228,0.7948256258204416,0.9851719225794767,-0.0919348637960448,0.4380396821098402,1.0611915121331872,-0.4778611197876274,0.6302192797335802,-0.7415650756433767,-0.2576855549228695,0.08747395496405817,-0.35808012404355677,1.455051434953812,-0.20233629230825295,-0.4319645164282558,0.3917656526245165,-0.2573390164029582,0.7267493276874184,1.7643284377587733,0.7238960326875298,-0.23503063425066054,0.066094859371713,0.8547920701951975],[0.723353061222519,-0.517372840176147,0.6340648119229337,-0.33274179627796885,-0.8009575148945172,-0.29113352594970476,-0.6087149463439903,-0.4463954555185139,-0.8696469804412705,-0.12419149278010022,-0.33822791534918095,-0.7374464382078156,0.19140919779830856,-0.9126104553555248,-0.12878134162124066,0.9735977705512269,-0.4535146159818251,0.8333168170222784,-0.11888118212157162,-0.3990889197705336,0.3286353241932136,-0.08791727479755784,-0.8045970836857357,0.8507779725308775,-0.9360281658453959,-0.4885033327243047,0.9535736488383448,0.30400373188827867,0.6690992115036711,0.7407421439437223,-0.7627403812999518,0.7557876097938276,-0.4113464177428128,-0.4494574255539472,-0.3121945357311917,-0.5306292948596185,-0.8581399050159035,0.6830994345008361,0.465722570506264,0.48609755892449336,0.2114686876476124,-0.9389575639176664,0.1785248152952852,-0.31664146069010557,-0.9646164046740209,-0.14528847676180168,-0.438320686142861,-0.11679132545611703,0.05075423112451061,-0.6403332304555847,0.4181040209862601,-0.011713664546368241,-0.5077509088917802,-0.22859780762122006,0.6048472483879459,-0.1420166720774425,0.7606865095136763,-0.03818413539468457,-0.2987121814472433,-0.5633533221298175,-0.5448495240434756,-0.55793184858007,0.4013971576216999,0.5069192032396113],[-0.9394122719546837,-0.3822309594626265,0.2751895757262173,-1.4985899510543843,-0.271569830940339,-0.5317047854663022,0.48828992237058394,0.7870976540965444,-0.8673915333999035,0.9040968954261842,0.1513701528088416,0.9316297415180633,0.5343633618610355,-0.8458905538657829,-0.40617044325979945,-0.05923887340701381,0.6790394034264823,0.2102029631575025,-0.10673102626872574,0.9910704892519243,0.7370293282881305,0.33155825042984965,0.5798575859617959,0.5453248582540748,-0.9514914043522925,0.691058618044067,1.0182717774575962,-0.703005228299723,-0.7865655393040073,-0.14182979131883386,-0.3342951342529099,0.9858291828268682,0.521882271991519,1.0972835262608047,0.9834366989749916,-0.5404273437900856,-0.6726505458681465,0.48129926854495475,1.3491589535877444,-0.5169572093753629,0.5989577655605972,-0.6326326893186301,-0.34931708296098885,-0.2771354609052757,0.4289089186288903,0.5532893597614605,-0.5884851015094567,0.8204034126139758,0.7930210464300294,-0.3604841089043258,0.10253628568780696,0.44940473574938733,1.3299686789680785,0.14477693080113,-0.5389621595288115,0.6688764997673428,0.7163957390371628,1.0940745070632938,-0.24957381309764085,0.03704128831393454,0.21830951073732044,0.23122337013743163,0.03558344636851461,-0.6580467324030751],[0.5975635781356137,0.843189558722577,-0.09369666910139252,-0.9012719086473819,-0.374098689266506,-0.19587311065088736,-0.059509090060157074,-0.15719028233459026,0.06457151115896177,0.41496069618815107,-0.5585045076867268,-0.09965192259476478,0.2766915383144661,0.3594531959900842,0.02653471790283019,0.38980330319594036,0.5190851697622013,0.32708341753520564,-0.0655932875942794,0.9862187156395444,0.28503486271547585,-0.019552449917591683,0.4680061448474707,-0.7402927071830135,-0.6926634187814361,0.36578177556123104,0.808558704801741,-0.34357879036657807,-0.7185210709233965,-0.5087767494632043,-0.19695069187286104,0.24673922131118098,0.7260550642852114,0.273978552990255,0.33841429978691706,0.08931203612138215,-0.8526966864730473,0.10471142467975168,-0.21304502663358846,-1.217274193904623,-0.5118381010523032,-0.24673881316860963,0.3701966478456472,-0.34529761508130036,0.3446969740842801,0.5720176574134154,0.07462543638790939,-0.15011749220982046,1.1059304668425944,-0.7780472272954028,-1.0071925904464525,-0.8803658303358887,0.8250038473592797,0.3816862155860817,-0.023256256034765926,0.1811884027329846,0.12911115537117396,-0.9097941291517728,0.5478328062855581,0.32707942506116783,0.6503795294954055,-0.008078821275534581,-0.6973539056584331,0.17504641072960198],[-2.0839199820060377,0.8131850659819948,-0.20219002031617517,-0.7375545788050849,-0.4167591298977995,-0.5430632204121668,0.6895864859725214,0.5720176674338602,-2.0582809747288584,0.9327654068295531,-0.08433510352151585,0.040652644676794254,-0.6200526660937168,-0.32768563724003064,-0.08438644633741986,1.2604985494413585,0.9831005041226026,-0.9531216711392434,0.0778344005878483,0.03767799322734629,0.8022677013727058,-1.7925692753101885E-4,0.3948067488068857,0.2658417881558138,0.22915157204700834,-0.5093600827550508,-0.11809184826140214,-0.3926521303416265,-0.19608860998742997,0.40235657807067027,-0.045259774592622905,1.2986046631645463,-1.1155215676261654,0.025834889836600504,0.11715365090695423,-0.484892995733954,-1.6271400590159415,0.2876967635721143,0.4910045274976732,-0.5230964598028641,-0.4714614152080144,0.7833345058609738,-0.6045241780970284,1.3147862419501255,-0.8256332590885905,0.25833478703879476,0.9979404687363903,0.9877427449609671,-0.38603553811328445,1.4011107005457395,0.7963934319756958,-0.43347377105202056,0.5394055273280263,0.20737876839416303,0.20050581038320991,0.5284594437983093,-0.47946214358664846,0.16030383972487786,-0.3566752466146531,0.2291800308390169,0.38369175721612986,0.029503342621244877,0.10021871841238718,0.26339940528251893],[-0.2485171241930748,0.14047632246252317,-0.1573146822730147,-0.9299228496141083,-0.35642694803206476,-0.1359214973822236,0.7673532768792999,-0.6757661000750852,0.6313187431040539,0.11790769053999894,-0.0033552968130226013,-0.2142308815038978,0.6413253296914774,0.7541276776098598,0.08846864191724335,0.06500943172476004,0.803875371919424,-0.06417276433042929,-0.05360901622492187,0.6466714300700118,0.9163925917898779,-0.35556767809595513,0.44765789986960014,0.9479795202940022,0.7027151907000211,-0.9824512265985974,0.16979341232796186,0.07565367770963327,-0.4398666200131751,-0.4211789510501711,-0.6616100273775591,-0.9369222715944259,0.9880995845710145,-0.8735314771245279,-0.8480847093012929,0.8552875863450635,0.9569742314193077,-0.18525909219856596,-0.7649390971938961,0.858246828673795,0.1021206164802333,0.7926111593326692,0.13036195883610202,0.4802045309844767,-0.18188176484477303,0.6566029708568535,0.4585199044965298,0.7667597570549423,0.07981464202329858,-0.07027213032363266,-0.3389366217601375,0.967583348901186,0.13139121021073263,0.7960855858768774,-0.9153136333830383,-0.3284225718087317,0.06156941701123442,0.4007582494961883,0.5748037228295138,0.008580636709436318,-0.277461625546892,-0.832791420166247,0.7165703599135111,-0.660445570416325],[0.6557804409148953,0.32183935899854665,-0.19813961717542997,0.725204079850593,0.01239017804546524,-0.6976410382742998,-1.274557123885355,-0.9250707670793609,0.4837737268651951,0.7068747665361522,0.8350007905716423,-0.441684949218413,1.10390069812589,-0.146285324525881,-0.21780851139406535,0.13108805753710695,-0.055962239554043315,0.4145154506963977,0.35200641281155726,0.625203990923881,1.078141893866806,0.23251099921443755,-0.6250003303789025,-0.8838149234208865,-0.25148810617199874,-0.5341882375353009,-0.11410353020453642,0.5884085562504735,0.3298259524908863,-0.4127999541926401,-0.04142758607487325,-0.08727727235578386,0.1887078870843799,0.5944065904383288,-0.32843087350854966,-0.15082116868327744,-0.028471121514787662,0.07389508883267452,0.5965263318052955,0.16434025678166297,-0.8671128665501937,-1.1291672670339759,-0.31129420913738903,0.4362798079010657,0.024904842333615056,0.4922286909946972,0.07791574747167672,0.46655627921070253,0.4340005623357341,0.19264389187088704,-0.48468765277254294,1.1341588733082413,-0.8926514868879262,-0.4020387919457652,0.7725630825474232,0.3168406665396932,0.7658116658841416,1.2452812458220361,0.29685989774274085,-0.49316042697405565,-0.8980583173200881,0.4449724265089049,-0.8084123461984668,0.6172686980203324],[-0.4613830388193254,-0.2974697303707961,-0.14657182798609092,-0.21384138242215991,-0.7314398094498037,-0.6418303331867562,-1.6600528399542753,-0.2174141970878198,-0.800695967476748,2.4778404603613704,0.4808265114383274,0.5287932269207849,0.5769653657970983,-0.2274246156960508,-0.8548671397044875,-0.2519744151354901,0.9250222852957223,-0.7365754118530137,0.8623339276899664,0.5717428832118853,-0.29176001465969664,-0.9732432583364111,-0.2794392020989053,-0.5130806012489455,1.2660279978015512,0.46918160444283813,-0.07301641920407992,0.28068965767261295,-1.0486164851134987,0.12904032759624157,-0.6395557329263727,-0.2585590624718089,-0.8882069096144936,0.522662136750371,-0.4596661787592308,-0.5699454420782278,0.42595278945342,-0.5191869234823842,1.147069334594693,-0.2266782209359785,0.4669233433398564,-0.015553040964778268,-0.9535724234837739,0.9670341366497761,-0.5826340016881094,0.7402476807958426,0.5964828167062521,0.17628640055423678,-0.7618313988265686,0.535289393351353,1.524861526654923,0.39208127124151504,1.2980726884696328,1.2684002865494526,1.1932942554606147,1.6259345556992657,0.7648482410170466,0.8709498044822591,-0.7598989173132816,0.25884080246288704,0.4272168345203405,0.5448476032453428,-0.8550050422562187,1.2604154050848617],[0.7952616687125008,0.23899749119766114,0.26462333699813223,0.882582730900754,0.5058097218551774,-1.0684868741541371,0.4860354053999395,0.33338168469023893,1.0960056638557498,-1.05694346642793,0.2588671638493785,-1.3594053341941195,0.009941131984070858,0.6800320047842272,0.24690048423330604,0.022715756648235545,0.9161239778226054,-0.8879963390718576,-0.4565518008349533,0.6749437449618205,0.6843819867007216,-0.8296479576082181,-0.7014682524320482,-0.5669970007503247,-0.719036310202723,-0.5090568049643438,0.18043519998227142,-0.39965657550793765,-0.053851568384687375,0.4375859280168286,-0.7687823853646572,0.5868142521541481,-0.47320182690703627,0.1967534440842691,-0.16199506652880072,0.6050090580266129,0.13085804448260177,-0.1458753461355051,0.09461158466987403,0.26851234246279865,0.3381017128223098,0.6485428445148435,0.7325276512139702,-0.2031265314551605,-0.8713044072570448,0.30937323644339193,0.23508328139212578,0.7720163389889423,0.6661314151775931,-0.09047045872951574,-0.8561546477750792,0.5761493024216197,0.23142634362385217,0.7648650687130246,0.6716188383940745,-0.40198382550187256,-0.23583312695807823,0.8612115946375827,-0.7883987820374333,0.5236699382962622,-0.030513765953296506,0.2931923663805689,-0.42214350387613087,0.6901420208781079],[0.12751403147673698,0.18228104609272913,0.23972212089021497,0.846526277884612,-0.35647956270456976,0.5493596330026942,0.34099425607204814,0.03967379689173306,-0.23372460284792412,-0.26588092985302175,-0.6397022272057328,0.9234239362048133,0.126440365444238,0.09504783819624493,-0.841550376801784,-0.7894329359592344,-0.3433139700947854,0.41204233501650817,0.07544958875338338,1.0435000770697638,0.5226150281139733,0.029410810118055672,0.49077543548107316,-0.2900192060885828,0.676052318753415,-0.2830279512278353,-0.4442605123861822,-0.369384933843141,0.31664273027197626,-0.036753995316615405,0.6138765455032305,0.3292111756798876,0.4544243414117987,-0.6919692028179081,-0.08190310648614264,0.9412046802571232,0.33743400246943617,-0.2240264350368672,0.38469087522805284,0.705310962986475,1.2718683404837952,-0.3674388062511817,0.16874867767803353,0.7973777174860861,-0.10925283574639864,-0.47201775739544893,0.8293354619654713,-0.3297447588423889,0.8145788964812137,0.25159348336488857,-0.4291282248987301,1.2116247849573936,0.5807331589974574,0.004778079266258144,-0.44273744095044,0.17629509996071624,0.0756410280915645,-0.2499763445170425,0.21838385663883308,0.1387620147589877,1.3027125439337484,-0.507258792163916,0.36136983639430736,-0.39732273490437126],[0.40405360402622637,-0.398112483275763,0.41734711584529677,0.004586939678786557,0.18891690585701038,-1.0731717172905049,0.17836600022867427,0.7927872342368163,0.9195167480664919,0.06871556822766339,0.3055874161937192,-1.42512313252413,0.8930019464499319,-0.15944060739581553,0.42927445279219933,-0.7265527147056435,-0.7579099374021157,-1.4529383037433432,-0.08003580306771499,-0.282654704009138,-0.627278469520193,0.4688764826684751,0.3705796448119411,0.9593547162557643,-0.681216767347151,-0.957278283715357,0.4993548411747659,-0.3467464071195312,-0.6899245685436648,-0.34906201656155184,0.2773137963094684,0.05279773500643836,0.2858978499589403,-0.620786753733387,0.08369580486436759,0.6705231237575252,-0.33460161567728014,-0.57707304972323,0.6488042273828668,-0.0213817435884376,0.45586918266643706,0.20845139203796192,-0.7008485985795085,-0.48808361903621655,0.7909718166293965,1.0623748546463498,0.12701678542839606,-0.6010266459274395,0.37503198554178574,-1.0703312548817732,0.5210525500807104,0.1033147800813039,0.7640712201914661,-0.7992497594739523,0.2679378614770852,-0.2931722375139608,0.785919875705486,-0.7931663065598823,-0.8005840944073529,-0.5569737425710906,1.0916890145025477,0.3650652653719988,0.22675671176837928,0.8689750280537812],[-0.4360049086734259,-0.06821312546929481,-0.4813302193702311,-0.15254252223310671,-0.2390106726195229,-0.07017151131495525,0.025381147675186844,-0.23453057594196935,0.8187544492014962,-0.25774808539570726,0.42574782888882967,-0.9539324059242775,0.3918903168372607,0.48428184424666054,0.9463462630036563,0.48753679293689234,0.41173756864484545,-0.14003232327311532,-0.1756747046230347,0.3252619383685178,-0.8382087664143871,0.5135922597671339,0.1874391989335582,0.8948749633606252,0.9395413955846357,0.2108714466967352,-0.6752618502985248,0.39743947028453097,0.648064815213026,-0.19491792497575178,0.7937781364053067,-0.011586881999192888,0.25639267528772347,-0.5079127608980283,0.4371646834601566,-0.7577925201615379,0.2258834906793239,-0.5304469375565797,-0.4293008916050405,-0.06325857827837433,-0.2794661821508764,-0.21051872612764777,0.3573481757042438,-0.9425360803016054,0.7023611964832526,-0.07049138015640666,-0.30428859354802307,0.9378988697589128,0.8586989098563431,-0.592746298135786,0.8286136751299553,-0.46615622922162414,0.7164424069963464,0.6233181630871525,0.31690353586452824,0.9709314153139126,-0.7310062059909415,0.04237911638226599,0.025491012150529402,-0.2896576401084421,-0.025149319756882393,-0.19186342781280752,-0.6668883275832582,0.9450335523527253],[0.6196883320593628,-0.12229339006384166,-0.9344906093778668,0.38007717791879597,-0.28864524003618186,0.5012813133065589,-0.005764802057409859,-0.22752930463811488,-0.5503448212272097,0.4594063387635514,-0.03442980562460572,1.4801584283341107,-0.017600513330228485,0.9473355918876873,0.23255406455192404,0.1265034660093537,-0.344348691731613,0.6538589603328075,0.06681962158004325,0.8355220137347715,0.03465584825983982,0.10555390590832399,-0.44143438619454445,-0.3893024460672723,0.5826137523562893,-0.3846371500241569,-0.2065445579820801,-0.43731839002602885,0.7699908033025378,0.5955205452251149,0.005774363388647215,-0.4393053027687606,-0.9280274884324283,0.39996333966593217,-0.5927757228353191,-0.6213916866240926,-0.8993239184447314,-0.027896503096723004,0.6368926544740616,-0.3330462479559651,-0.3270676699624124,-0.6762119302919655,0.27698805736172316,0.8567086476909913,-0.626824783775071,-0.4544604675325988,0.6464258828846862,-0.3220477494301137,0.8141798885431936,0.08549230993765218,-0.7058322509128029,1.0482365791245403,0.4286871257831111,-0.03763226372822222,0.24901636607892688,0.9150751578053647,0.3452772723734941,-0.15410954862345755,-0.8185877070585567,0.1544820865682275,0.7577310835943383,0.8987456024633537,-0.675997298302638,1.1618011528562437],[0.8867819102918726,0.16112249617800845,-0.7310915951362775,-0.3871368402575579,-0.07099310578334239,-0.8393039604040773,-0.898162145447075,-0.911814576784941,0.13967890759018653,-0.2391241028639175,0.16032817802527566,0.7552903674227156,-0.2556583246578681,0.3826156789912911,0.16307934011165082,0.005754613535276842,-0.38476316733020854,0.15859862076699627,0.06881066997720553,-0.6682093891697627,0.9873355514350748,-0.4675190784047467,-0.5655481683076369,-0.7195437445984503,0.8013556829696471,0.7746253891228674,-0.7793374892031948,0.5384964083247425,0.1821263641569435,0.1985665398453822,-0.9537934680000051,0.21428463911206763,0.18761479116570579,0.6925259138483761,0.05090919219512191,0.994659598389914,-0.8466165679650557,0.0728740751214838,-0.7523692157596267,0.5282802541278866,-0.2908011646613313,-0.27848465943429734,0.5268900705291875,0.12345152015471528,0.8589662914600595,0.9867474972144425,-0.6765221882713901,0.6471996337497987,-0.6078822632350054,-0.09277136842079181,0.362600444283137,-0.6262941647343547,-0.6659663321997005,-0.03874014712239737,0.873799342673163,0.4540339205394688,0.1450325584830463,-0.2513278963310013,-0.8059067840864755,-0.3345840494064256,-0.05808510218551599,-0.21981741086449147,0.7774943043084224,-0.8528115415795043],[-0.5683532625109852,0.08482850375456683,0.04087676114475332,0.548166726136789,0.1864391360772906,-0.4751467856404762,-0.5895185421551806,0.49759620388136416,-0.5431385549283028,-0.12622881370666264,0.3333236932883198,-0.6361653685129541,0.8567649427384515,0.4239024523614965,1.2245572268934066,0.204449421900582,-0.8691373000219248,0.06994158165112797,1.0157667503387364,-0.3374585227730876,0.1470066193542938,-0.18835653449662862,-0.41280413152461454,-0.3397966543472758,0.33034156077161586,-0.35363963066649284,-0.5026820014477315,-0.4379307632414046,0.18480424432400439,0.8368746950875768,-0.23322168461131138,-0.0843146282618928,-0.9121535079542658,0.8677899857688202,1.008257122400588,-0.2761629260845262,-0.4851064575003398,-0.19242557500277685,-0.11627172747692562,0.92798784817136,-0.9158032748436357,0.044957264036002524,0.31817501193946734,-0.7360235650918192,-0.22264489615093797,-0.10909530433237344,0.9579838033277961,0.20411526219492868,0.9042391373497672,-0.8998952266019987,0.1591146448415495,-0.36168845386281484,0.4712025125570947,0.6599485839809283,0.19755087956308862,-0.11727456574260564,-0.18753445341771963,-0.4907741290755291,-0.651368197584674,-0.10816819939380652,-0.3828520900577612,-0.2933693508561641,0.22983265649560147,0.5209041184671668],[-0.7560889920379443,-0.14367816128789454,-0.36513910999830246,-0.08287083789942686,-0.43856017933548114,0.46658610653232413,-0.34358562502567275,0.2025010189252455,-0.3794185210323969,0.6374346417944133,-0.03479883838549343,-1.3225457743283195,0.2963527651175268,0.34223633015251587,-0.5434662219750424,-0.4382870803443,-0.6905897787530331,-0.05082916450298714,-0.018626134406968826,0.7313333708565118,-0.18982387325986155,0.01830878996570182,-0.1619821053800707,0.4513559269309217,0.181803947201709,-0.06618731774514362,0.008770060485350577,0.7914785102952159,-0.45543852499316423,0.7366371094158907,-0.19405819751210884,0.4617617647950906,-0.5366941381062349,-0.8911971650541533,-0.6441844227668517,0.7348280026950766,0.35587866616430053,-0.4949347234545055,-0.17499200686228752,-0.697693032297505,0.0745394581340944,0.13122217978313405,-1.1245517023635785,0.781998410189222,0.41646391327340865,0.0812073679391936,0.4526274625289578,0.3853630011433913,0.4355862043099081,0.40405229062946046,-0.8261193940029679,0.7246406147941183,0.7790192571181939,1.1698672687780258,0.8220701976241377,-0.1015517666031089,-0.216964338312576,-0.4671701830171881,0.40608007749722624,-0.638718211485135,-0.46152079910265614,-0.6819555931081612,-0.46457102342488105,-0.39153633202854726],[-0.6743314892622634,-0.15084131734078676,0.7752549916084843,0.5662275502597149,-0.5078125210946713,0.5796775259903972,-0.6208792258046498,0.1011985520137566,0.24166847235588795,0.058379343363542224,0.36615336846002555,0.4053142031714867,-0.13950328524358602,0.8849785395199499,0.14673870621938567,-0.4226189799956057,-0.26418181645179395,0.3548612461277212,-0.2673105429134792,-0.6259117718448857,-0.6635478729576096,0.9652796668857111,-0.8790095519881238,0.2661073346518208,0.09299021723521061,-0.744863492846707,0.6937047172699746,0.5631630666218514,-0.9126996790155579,0.7074235624408589,-0.4078904052131249,-0.1384448355043555,0.0729800678738981,-0.36716698410792814,0.9157095700807643,0.7883130845425386,-0.9778663709341129,-0.2949875810186702,-0.44814907496244283,-0.7006317776140996,0.13017362284133016,-0.8676121687174259,0.4592415454162937,0.6348331104852429,0.009177488249508148,0.3284323563967988,-0.6912427626825641,-0.5573218814239824,0.6616569687640144,-0.6182891183238426,-0.4725062305096497,0.5528008280949273,-0.249574126093844,-0.3710155788869218,-0.0028972176144062,-0.5833143219606325,-0.3334189414791344,0.19911127904513992,-0.07497341936608715,0.3235549389670911,0.9464382288785327,0.5224344659400215,-0.2626737532852592,0.1621145075761774],[-0.711935025422629,-0.7676311589392093,-0.41666026369533077,0.5326197409148689,-0.7942103034254769,-0.006609902287848682,0.27231766017808773,0.35655091641444736,-1.1484706285867508,-0.4497305093322346,0.8426587377368833,-0.6444615372918738,-0.003085274634096321,0.9485925893696526,-0.42074722472404213,0.2791269824407033,0.8119958751259784,0.3899841394422094,-0.05984900004445339,0.30115675504788586,-0.8376382188872218,0.4999046332757825,-0.4979065548737317,0.3153884362975997,-0.7834554550439369,-0.5250965686686418,0.5103550585378758,-0.5435024888811101,-0.6402609105017089,-0.3975522672577646,-0.6146388541717336,-0.41718301518337575,0.38435351487622255,-0.5732234356328294,0.6306863421330323,-0.41676316017401493,-0.6102256080102627,0.23702724385474658,1.139111200593638,0.5030250426272127,0.9310331607798957,0.28500819757197204,-0.8785918170530541,0.1572045046014234,-1.1023283488325593,0.1846572889159691,0.15461555015634604,-0.4437642377655025,-0.4289765374141529,1.0749495973222525,-0.45303203136552367,0.4690227180749039,0.5227442602974777,0.7788016848292981,-0.3659132213819957,0.9506604648784291,0.255566141435955,0.26908195611824637,-0.2997752437276474,0.8201754971511359,1.230934159235644,1.0835239921646995,0.14477038128029354,1.0831242900523381],[-0.9257438504490223,0.801044096611931,-0.4635399365727433,0.12314618188118479,0.38685345918620445,-1.9539486499596097,0.8160303655488652,-0.3577371976396523,0.3706627050210454,-0.7739055502084021,-0.33263099682619646,-1.3998037146457232,-0.039925279665639295,1.0283190696647708,-0.44452331228220576,0.3825474099430096,0.9241122127309925,-0.2019925783326229,0.2226689598044867,1.1168275603823807,0.0452888322509272,0.3896307839238447,0.6456958692501314,-0.3825212261351059,-0.4697573852479293,-0.10881024456169487,-0.5333977170317692,0.40672711960844643,-0.4526646006814574,0.8104571691745216,-0.1238822823114842,1.0362382346188526,0.5193348597581622,0.26872133893942607,0.7757911416828777,-0.14839695572960437,-0.10626811421121873,0.47354272279553866,-0.3897661312433533,-0.44147827917027627,-0.258394890680595,-0.2965581269920594,0.35768767485087266,-0.10416731979681655,0.333192756411976,-0.5423753031162635,-0.7298854001922703,-0.46834824372064526,1.05317924581111,0.17112292770595067,0.09731707863922509,-0.2536480774669405,0.5770175724998986,-0.5095826285169627,-0.2563023932123712,-1.3903552849419987,-0.07721303986635861,0.6654889397676877,0.25138855195435544,0.6660307814383066,0.7050539705794937,0.12777619384441094,-0.777809314697639,0.975847130852745],[-0.7740674389124191,-0.09332441185381302,0.45232905059854756,0.6842631511333179,0.15797180716713033,0.1981156083916349,-0.5626457280856381,0.6683118740066463,0.6497954432694237,-0.6155305351402036,0.8292411830855297,-0.4123734044737337,0.8804980008674426,-0.6170360976960436,-0.34920187031605865,-0.40297907219323803,0.7667486255098321,0.5713773199739969,-0.16184871575520487,0.8548093135394113,0.7850953733997266,0.6040218321922017,-0.7924266302456042,-0.5032208534454958,0.9833584137325242,-0.8505658608043902,-0.22304068448113146,-0.25642699367069155,-0.47165913211589383,0.9150710119549905,0.9542165717899849,0.3358765379026163,0.8577897309808622,-0.0018671206895515269,0.8567913214015093,0.4468888687513015,0.7877421315085558,0.337966687599643,0.3410050749824143,-0.7608729983458449,-0.22790516451344733,-0.1556711808524327,-0.8031712663682486,0.3126967386562416,-0.08056084831570631,-0.3628852857067968,0.403175235426509,-0.5652607701154737,0.34290551809782266,0.756992465512359,0.34074388291669466,-0.8551594201504213,0.9519652660864679,0.6927035645190727,0.42390357996860417,-0.9012294965243468,0.8908412181818588,-0.8803764117549393,0.7400546732505351,0.34299373154879587,0.4863803023445956,0.35550336407582006,0.9743628765472858,-0.8950239383356802],[-0.7868613320114148,0.14971054688288432,-0.860614453315925,0.5730882231676069,-0.8339546391855381,0.5261661319733242,-0.8121336587728782,-0.9895371012973884,-0.9579550582301541,0.3812224416841299,-0.30985758025550414,-0.864348012035528,0.8209931522985234,-0.6684891797095065,0.5267848364098748,0.6962696637963288,0.5367126892285625,0.3586491818852664,-0.7209443837238034,-0.9880820975628641,0.7695193306029204,0.766335533100259,-0.7411810492702813,-0.9377299248328499,0.7645587508826184,-0.07724715997281906,0.3915882639848687,-0.8172380563106809,0.8224991833603525,0.8318020255442762,-0.07164360195732855,0.46707100581425265,-0.7170461995675332,-0.6713644441996951,-0.08306591853821521,0.25877079426390726,-0.8426656506879748,-0.9905850165618666,0.3810994793013873,0.9602473110172103,-0.7333343974655604,-0.11782969509387042,-0.7640594229852353,0.7951699087397137,-0.3987810235577689,0.1650918445003533,0.11034995630864675,-0.8684891987394474,0.5426509419582255,-0.3394620602912719,-0.5472911981150417,-0.4946888474147557,0.5756606402036726,-0.3025044792892735,0.5633770128041051,0.5810946465508813,-0.8349912315172439,0.7621835163484192,0.527682286022719,0.9430323816037303,0.5850685550118917,0.6259420418176034,0.41568056225383376,-0.16833359625003053],[-0.28596314236413606,-0.4905663964943506,0.6397678363352133,0.10719835219185032,-0.08714431585816258,-0.7937904736121623,-0.27736038967177273,0.5209672102299485,0.43419513307843727,-0.7286393831680544,0.8995851646931967,0.7514820733333877,-0.5465819262390348,0.251455674882557,-1.1939634296397004,0.5424928626172973,0.9738169093605669,0.20590989228143583,0.29794191286016486,-0.03960063899316627,1.084690470167132,0.29926670351690227,0.005033233948327945,0.22491355628759332,-0.3434282187415532,-0.8252121640209997,0.08265710754413194,-0.34244324386555314,-0.8585878185063992,0.5234755013501333,0.5734946219737281,0.5518434171585406,0.1401565384670724,0.9991671241228819,-0.5065824782383701,0.26357979247719443,1.1345793636245753,0.33447505535017463,0.07339843904286587,-0.061725554299285786,-1.4161839011096682,0.2640130059574071,-0.47815959163612265,0.28813461692277725,-0.8294042460915279,-0.43181469433042186,-0.2470630674715526,-0.35490721155215627,0.5770591873550304,0.23517970097949364,-1.1597157071303836,0.35977427054509814,-0.4697324215145214,-0.675629477527337,-0.8674257183581467,-0.824250133445392,0.4176569630005061,0.6365110423104319,0.46621279406418215,-0.6441750858171031,-1.1393459023842047,0.37198815636652294,0.4319615042805668,0.9693376527364884],[-0.47996188372635057,-0.7954679038487567,-1.0398594832512387,-0.5834905029585445,0.7360854071330384,-0.9320410143827361,0.32072510922734737,-0.13002746898720274,-0.26585000295447436,0.7986648504120899,-0.40448513265561226,0.7528902643714218,0.5759620393667734,-0.11211853808644312,0.7267126344435909,0.5456618223465799,-0.26221386903476857,0.2722950173406394,-0.965127611690167,-0.48292196970407836,0.22808795373150584,1.0189712169850322,-0.6617289952122731,0.6106651638315345,0.2924763773184303,0.42009732713984194,-0.2990663325259942,0.9012675637947755,0.2733296583666196,1.0279431780320163,0.0881424672295729,-0.4614706717835792,-0.4365922442471871,-0.1005112101828264,1.1208562852316342,-0.2069757481595948,0.13000639680680887,1.1244317533467207,0.4779003587110387,0.3099513045045398,-0.24113091023185948,-0.5661433606052105,-0.5282210701115072,-0.20480252329635357,0.278644263533678,1.128795010488414,0.5755050072443647,0.949469231185139,0.027537321106253537,-0.1806369522835757,-0.580500828761436,0.7317904725045407,0.8207196027171232,-0.5731472447699131,-0.16369449309412745,-0.3226174657277074,0.7237161375552081,-0.5004323152653173,0.05688706741591634,-1.3159962969191623,-0.26146500551456325,0.6855674892181385,0.33005365448947604,-0.3312623853650748],[0.4188169705520799,0.474096854779827,-0.6277459860217522,0.6936507754937804,0.42197498370925945,0.6133010016571434,0.9018391878169729,0.5874211387414277,0.3492067275126698,-0.18005229592332306,0.8894037391261642,0.101544202759275,0.13319185964613256,-0.110458884718585,0.26001704644293566,-0.32198649124747636,-0.9946462735473309,0.9690739637927384,0.5739342539664629,-0.08419609254913607,0.15776538118559302,0.9110516238104047,0.8755377280886576,-0.6253355564236174,0.2265293115184699,-0.14407317969082256,0.2568495477702111,-0.28937565094325235,-0.21043620690546283,0.20706861549694566,-0.4751640962003765,0.41768642324794625,0.3549302251150035,-0.10128281605090828,0.6761782455414904,0.4677616922955141,-0.8384593695953202,-0.3437953941428473,-0.2398616571221306,-0.779023697264692,-0.4777136020397137,0.8090488390197978,-0.8504021921180012,0.12106061666515155,-0.5896670699585058,-0.8586422697838598,-0.7576941467559171,-0.10439282442499831,0.5225281912563535,0.25030661378486085,-0.8211779070103442,-0.7514354225275544,0.14957564777477184,0.9322820542032741,-0.7094058651985033,0.3624096650042181,0.8408259361480099,-0.7723879560604172,0.6810636451597516,-0.07997875872950688,0.07224422041668221,0.9286313155832042,-0.4053540281221577,-0.18864522842568388],[1.246723863156271,-0.013180998026284476,-0.7094591102367871,-0.12656025811353694,0.41131944338302456,-1.4014816614821688,-0.9661482852533709,-0.05926788656678407,0.6220873661541745,-0.6305192005121115,-0.5355527795645219,-0.8891633146052174,1.229998841686426,0.26248126662181936,-0.7368005638475946,0.6446125368068929,-0.31946664118711227,-1.4609101947015397,0.016885619541053172,0.45820528370751595,-0.5747506516338918,-0.23117551119761298,-0.7525690570637027,1.06302296592263,-0.007875559724631588,-0.16914334258872965,-0.3211086447294749,0.9027901241111879,0.3110398629005616,-0.19044126582124452,-0.21854520392732857,0.9305309042684772,-0.2166248950696867,0.2559434301545536,0.8828199601007634,0.5882736454246856,-0.3627173955409963,-1.2969357431637112,0.3847628923517723,-0.5539562934312984,-0.6901671431804028,0.5323273936182457,-0.7837002552005794,0.28193063733874946,0.2105223809113569,0.7713445035327705,-0.6160217907851622,-0.016439635151626938,0.0018615679470086303,-1.200448608663902,-1.0175018745534132,0.36335457126492016,-0.20461928569335566,-0.728115791246471,0.5687887505126618,-0.6580114751441202,-0.6212566423694643,0.1593980232943383,-0.5531568254859538,1.0367734483404945,0.6432030845324519,0.621715390014216,-0.365905103521404,0.23138359443191353],[0.8339360257526836,0.008790286370877975,-0.35717032180237696,0.8314138790220476,0.5741567428485637,-0.6868854158253384,0.6448955548407922,-0.48763632990688177,0.8620454262401895,-0.6993166154458228,0.6220357573701827,-0.8879161870181,-0.9977557397831387,0.350343221308798,-0.10610375866922306,0.26569817433604137,0.7994056629304529,0.754668113752277,0.46964103033848525,0.7483543897852469,0.5146164937797877,-0.03429160218155736,0.34291675236376573,0.9302783016456508,0.9602214374810389,0.6744049670700454,-0.4936989095931117,-0.34243435170117587,0.18476670528869366,-0.4393553927592049,-0.7761286365845521,-0.9783372592657995,0.5142385911561627,-0.4314902153456672,-0.05376944555654162,-0.7206838631678372,0.5927236901180299,-0.3586466285593497,-0.3394669019402159,-0.9539009699846108,-0.4949279343027053,0.9939090245959536,-0.561245345861674,0.8104502489896144,0.06609675313316887,0.2037235032000444,0.4806538775888065,-0.19850969977759592,-0.07470383724260432,0.6717778240730257,-0.9564233753356317,-0.7072934175229886,0.26303978568717934,-0.6677597159225896,0.30945724545436515,-0.46507153813979185,0.5436100755927205,0.8838737359539668,-0.5399265732874454,0.6858399918770712,0.04244648239263027,-0.7293030617818466,0.014815416467897302,0.3396080172487499],[-1.590420614684213,-0.19555724874335076,-0.533894129205687,-1.7800348424013739,-0.12007546960555342,-0.36207573213147,-1.152751594952815,0.5198336668822059,0.6823816852980638,-0.030206171784359005,-0.35785338510127296,-1.2697580327582871,0.37943947924926014,0.0212700738011513,-0.8907258206051207,1.0767386691476577,0.9261858563580725,-0.6468065009588929,-1.5010151181249602,-0.503590016929383,-0.7497240925083168,1.3130259610343318,-0.9961750727509034,1.0187235216747963,-1.4809978418931735,-0.44412322404982707,0.208787287664628,1.0968665730446303,0.2701190576450963,0.9123565079699417,-0.6105191623220584,1.2285614257865154,-0.18891902634861998,-0.5480720043132292,-0.09560076944233803,0.5062527725184421,-1.2245616498899055,0.8560752250642157,-1.6907638577572193,-0.5581972903604832,0.8272113114487243,-0.9878848835025378,-0.21007519597307872,-0.47978522392791,-0.9094626981690891,0.7223139292249721,0.8585380021016016,-0.1781016268596017,-0.09858988886887624,0.7567068983632834,-1.0286144187678912,0.39689043471873825,0.5287536479543367,-0.6110875361206859,0.64098582082123,0.1351313195758935,0.17947477599497164,-0.33362844367444944,-0.5372251970883553,-0.1175688004720841,-0.16951708094292597,0.8463265968511566,0.003259014692496855,-0.3163182291925309],[0.17119199035548488,-0.8352980501194984,1.172599633530428,-0.18205965093944126,-0.044909288512762546,0.100427090421439,0.8879395278166365,-0.6931626616621427,0.8999643190028588,-0.6339358115285606,-0.36677822334946913,0.03797146654763235,-1.0662738138569723,0.17960592313321846,-0.1692349261111583,0.6696209134032235,0.7013016193398168,-1.0978687259305717,-0.6094513563216603,0.9937332357432772,-1.0172898083473592,-1.4692528037462347,-0.09542737863663242,0.0882236810756093,1.6782854164962446,-0.10641248746934395,1.203950707119201,-0.20968288632110266,-0.5442413562236977,-0.3499828363364011,-0.8226788993181644,-0.4011051916856821,0.47345520336771085,-0.48784437521949725,-0.16641377521964887,0.9178284996741625,1.3797287737089299,0.07606609991370336,0.1092620471683146,0.08475699733335201,-0.32229983263095,-0.7814806782108862,0.5063306209020622,0.86101245504224,0.05364464918137631,0.530274332798149,-0.030199076538045037,-0.4880099665025668,-0.06511219245896278,0.7850249784109057,1.0526669604852428,-0.060795134606417084,0.7132570072443846,0.05136348423179093,0.5753536494632397,-0.19905071138675898,0.7509790760790853,-0.5902800273582268,0.37372924972063987,0.41598148080650094,0.03604510622226178,-0.8001893590666632,0.8779512579217266,0.6612812771357028],[-0.9573707409058925,-0.4555416261574379,-0.2886401960056626,0.9703056900701896,0.8998506241107682,0.22305118361327447,0.918256002279509,-0.9013818352717593,0.6095207593123517,-0.9442649343150629,-0.43973248733203096,0.9614555260715931,-0.3892701719255156,-0.519952996243479,-0.8700943627931508,0.46310548178196886,0.7454426963299574,-0.11276237651133814,-0.4718617163049197,0.025429721916194525,0.1396700187738389,-0.681251460531906,-0.44814480181528893,0.056993977675701135,-0.18981830096010643,0.7323024640859559,0.39865326755249586,-0.41831481443783036,0.3034638628249877,0.19753000098049434,-0.6127538911633965,-0.4950968036124199,0.4724496073928004,0.2580105519839704,-0.8281212667329005,-0.596380461878858,0.3578809455955534,-0.8639416629358843,-0.12829313836828793,0.6972974629651509,-0.9350117569993928,0.45853682045777444,-0.2588215064219501,-0.410129110853104,0.5125014302932487,0.7464382670465255,0.2750335801365653,0.2686832177642611,-0.0201651633149873,0.03791903556767595,-0.028384628902947906,0.5044902454193565,-0.5103832504467134,0.7039325990591572,-0.6292342433938669,0.01733408708485218,0.23656129062441655,0.7675577245144476,0.43765449010215063,0.756298273357594,-0.48998962320699246,0.8525701004001984,-0.11852970399817653,-0.41314251467589935],[0.26376031711504133,0.5779809178301831,-0.21226108249342457,-0.4115690428076524,-0.3590461509958627,-0.09245427652544991,0.22991383920660313,0.17436531674870093,-0.8693585354609314,0.5252440673743255,0.1435431300510268,-0.47842979518135387,0.0835820189823695,-0.15264017948921582,0.9744022143109043,0.724293711676665,0.9136926095828273,-0.6314588374655445,0.9895141558186789,-0.5486417221119084,-0.05700598567583226,-0.1834677065399719,-0.9875761632165847,-0.1739024721717526,-0.19066724228001175,-0.8935473613372416,0.9517475234181343,0.3863891429904345,-0.6719459323648156,-0.9258240666432878,0.6323367689183763,0.5115622452524844,-0.42424681952098386,0.04844179475346522,0.8465983045607213,-0.43571194087602283,-0.5963145882821115,-0.5360922037508464,-0.48578630656908883,-0.08061041980542982,-0.40963109064272873,-0.07756889111685106,-0.6282922359685561,-0.9621657860918895,0.40736685774904746,-0.6225560923479412,-0.2909845458457836,0.7930021491415875,0.4991887534440651,-0.553632065418179,-0.6715979333334747,0.36765047890763713,-0.3322953952634158,-0.7514110243682768,-0.8782067830412328,0.21382166664949964,0.4034170118870022,-0.37840814386919397,0.44577562573865226,0.8042732717326664,0.8203918441678262,0.08543442242531873,-0.18076883153231682,-0.7971666147815897],[-0.2852562610478842,-0.6422213124032906,0.6732711706607583,-0.5792254516906067,-0.7611659534920937,-1.0039022566003366,-0.6593938197503039,-0.2623181348819108,-0.9295445714092534,-0.5695600889994041,-0.3498423118154519,-0.5860585774838448,0.7577313988266426,0.9452677147611765,0.44529487585424765,0.656627517698362,-0.49088988661536226,-0.46396335288285173,0.06842000962241013,-0.6149007382469145,0.3038426536081227,0.8638418338895995,0.03848712141915998,0.5291445999961575,-1.377834003294326,-0.9657581189365074,-0.30341040680302245,0.598272073804683,-0.38385719481533603,-0.09385028220979216,0.047335625113098134,0.34608350897491763,0.05349770352145574,-0.08908196544231099,-0.5156062027916408,0.7062967402937957,-0.06067916630667423,-0.37767872899252286,-0.5722561011166671,-0.6273247871133616,-0.7094744552742321,-0.08655569460858065,0.03183237813358586,-0.3909105999953893,-0.4736029403035486,0.6794514996639945,-0.7061820634235387,0.10168911602365556,-0.6936703478690825,0.46796803348278154,-0.8466956947604154,0.7795509639530507,1.0973278835726528,-0.3985236128058536,0.9464386124012333,-1.2135125853077324,-0.3456901341385958,0.9975417652218399,-0.19084220037334185,-0.46890408666969813,-0.03007897947648135,0.5436731466575482,-0.345179069312415,1.0458983812129414],[-0.44776123932560274,-0.47576375926490005,-0.1648129972261104,-0.2575862915790894,0.7103979566156022,0.09052960684663552,0.4356651847611464,-0.6870570211630166,-0.24744384461343782,0.8608836464153673,0.6607800283759672,-0.5434742550911014,0.8697226415496129,-0.5408821474833022,-0.31793105436527047,-0.15071021583786404,0.20645988533958592,-0.15854608895439004,-1.105148231086563,-0.43264931694278064,0.6033059880139583,-0.031008317733715183,0.5968389923978922,0.2521563955785721,0.4658927704370151,-0.6429980062110981,-0.1239264508813726,-0.10042673672925276,-0.9245965700178216,-0.11350540964277715,-0.6439484953888926,-0.2914006857623482,0.6671851254497189,-0.7697465212355422,0.45074196641208947,0.21635702179372762,-0.6501567067063523,0.07256256229916952,0.7484940681975517,-0.10423039532464123,-0.3458171136147527,-0.3282197669173862,0.07813578768977979,-0.079756491133628,-0.9848615461840489,0.9680900740705269,1.050333829550058,0.542284192681772,0.3086812420460061,0.40278613378040573,-1.055583039054245,0.42197581103095055,1.6744619231127646,0.23210702648900655,1.376516106394943,0.05311039388774151,0.23559933498988275,0.9826161561867373,-0.13653776556190272,-0.7225922508002455,-0.05811140909566449,0.10366321214809061,0.7082915981789598,0.5726056145112923],[-0.07289402702574461,-0.31446242244518513,-1.1318591459107707,-1.7245154272806411,-0.4669334966982982,-0.19808165027388225,-1.0521921347189822,-0.6282078956414597,-1.6802453091154357,0.5454870876270274,1.0721362982961036,1.2955827947131338,-0.12593518847668742,0.6179400771420829,-0.5125803607084243,-0.6176798333020225,0.9829283679409732,-0.37955344685488573,0.8157594266649406,-0.3672556084084499,-0.9551463515865386,-0.027405496509143763,0.33924244960864824,0.8175839730536231,-0.6859706177150756,-0.2660804436840833,-0.46648466992655013,-0.584223757252772,-0.9062111544556858,-0.02376846253262765,-1.0335335276918935,0.5500953057236796,-0.10994414343511966,0.544513678833778,0.28821791191111884,0.2840971857548613,-1.0956470858879779,0.2480369184924701,0.9603511913183582,0.47762988955546726,1.3060210647849042,-1.0470691994955121,0.30962751326039584,0.16326086809265894,-0.33571021425600794,-0.5639999075475235,-0.47857772927408815,-0.48745753566004707,0.9339499489596274,0.435385882910389,1.2366838402518336,0.42583826379915846,0.11734350148855777,-0.4736756033555045,0.18417831394421671,0.03955725762307881,0.24924318594675035,0.215199273030859,0.7448131625284685,0.15808760618115392,0.5563723454823991,-0.6253804487073434,-0.27010466193779437,0.9623350529548688],[0.6817454206386477,-0.7701299829235859,0.21567631292955358,-0.15456440507039093,0.10305440466010962,0.29892697403872526,0.31912272818231435,0.43483809047848077,0.24972489278254306,-0.8224066129437959,-0.7998998569804434,-0.4563661607135079,0.3977326564690542,-0.5028904812278479,-0.10660689019912528,-0.32535797159443813,0.22081567434938543,-0.938670429192139,-0.19428919781330345,-0.16585268192422964,0.17097422358739878,-0.744775520183381,0.7502182397529826,0.9324839767510524,0.41057858381531687,0.48639124051966665,0.9438378757994552,-0.03209841197789065,-0.8107889098638106,-0.1557999380662296,-0.9901366574562438,0.3668199454813057,-0.0021766958174023188,0.30378937720712695,0.9991294802511148,0.7774089018655397,0.834742096083793,0.007195576248244073,0.9761870659150134,0.5997583082055566,0.4825112799003368,-0.5785161563857402,-0.18736762707403254,-0.4152710607723187,-0.17849095549315153,-0.4961765832878742,-0.5120536508274529,0.9449060657676358,0.8957337742840807,-0.6039703003702355,-0.5811000440440668,0.594903447513544,0.6981049097511436,-0.3738272262727178,-0.8782139590454789,-0.6254052713997731,0.45707780035789036,0.3124312588172853,-0.14255850794911895,0.40767690506947196,0.5833253879263778,-0.5555527786394832,0.8172255304671268,0.10929881295602795],[0.6338570597245874,0.8419195847233486,0.7187279405994177,0.6266765631899783,0.11276206938504012,1.2540511631760556,-1.5005886201682364,0.9552118532461852,1.3947686442590514,0.6287918013296214,-0.6936573163568339,1.2351059481702118,-0.0046020681641825364,0.7917245686619703,-1.6891463656638863,0.9611132867088955,-0.09312815083377828,0.720376422153303,1.3701841814140199,0.5872032087726015,-0.05152375141424754,-1.0894301609201782,-0.9032996006665259,-0.4774304725207551,1.013763013579419,-0.5033233601661032,0.5951519594990659,-0.6134570461980441,-0.24595744945580142,-0.8310730234922917,0.7474939906774156,0.1667974445173325,-0.5700527415795138,-0.7261969352709425,-0.1603992222904791,0.18723386814286988,0.14580339366602496,-0.21051184121137068,0.27474582716841145,0.10297377821366678,-1.0105389962486333,0.6773323715942358,-0.2413553415881656,1.108290268099847,0.5198841451014692,0.36461734747982405,-0.6792172977957873,-0.6625673551077155,0.9226103969392607,-1.5835781865945484,0.04085551819606595,0.16371697316070352,0.7641090322498553,0.4710794216710794,0.11638811275155814,0.5981638414879792,-0.028911737489314523,0.7989649464871263,-0.17424169276290824,-0.38275252876632954,-1.4468205503106597,-1.241508815359457,-0.9028450162778925,0.1157953360144849],[0.020137414277735077,-0.8785552239561074,0.3607504985725023,-0.43309788302980534,-0.9322822544315128,-0.4199373229338288,-0.10252138282056822,-0.8550721073743555,-0.7748414760626297,0.6964180546966874,0.572215573878109,0.5612409898032595,-0.9972308158223777,-0.37764622139492543,-0.9184269234934841,-0.04625947850654444,-0.5878348952564114,0.8140222127619219,-0.8498014353398489,0.6865555218134907,0.09753926651267153,-0.7535045087775731,0.8418494969554713,0.7393687880848803,0.2597830476211791,0.5698601964220251,0.9265312245062338,0.5038325103578694,0.4784964705575472,0.1424041649934955,0.6987775478767277,-0.12321580646215247,0.5076338581113744,-0.19966810754727216,-0.35589153717413935,0.7450509082455408,-0.34626881986626223,-0.7902273510418911,0.9151517346072013,0.22420736346437997,0.44136764864121836,-0.30432697339002,-0.29413199643018806,-0.6562681342568559,0.9287137978152213,0.5534949727588392,0.30177275868518416,-0.7364179315141968,0.256724600140692,-0.976532242151744,-0.16399862069770643,0.5622904147431163,-0.20126271122781958,-0.656529954592654,0.5955162839637891,0.6542577849568161,0.6229370191980008,-0.4045524425720284,0.09870887296664477,-0.025998472423634844,0.8883572838370062,-0.5784014714161885,-0.8948979921889164,-0.7923075556996573],[-0.20674554800603884,0.34026137747480684,-0.1912945808207948,0.9334371998510865,-0.9548089260880888,-1.50485351372361,-0.5181659059021978,-0.24205042477959915,-0.18817396168911016,-1.2986662399896014,-0.06590672447711521,-1.0338570099944404,0.041759994288501516,-0.08504816438241412,-1.4865283342218922,0.3159160937941736,-0.29960844985282964,-0.6953705964267429,-0.5737462012059057,0.9175939641073781,0.9733950808513752,-1.6136249441796362,0.1634105096988755,1.0204439228765567,0.10371559468339821,-0.5129816383822046,-0.5873818852983932,1.1715711529474913,0.17085598936135113,-0.560098991425624,0.8689517252731165,-0.3339494841342083,-0.30665589650349506,-0.7723994242726598,-0.23497389557789528,-0.31368333692956507,1.1604965608204951,-1.3359508694244824,0.03625415935713326,0.9774326792624609,0.5946670060610383,1.0813216609994551,-0.5578271154797175,0.7711803793528843,-0.3171949985271932,0.42573203882330407,-0.5437936221854218,0.020395739393882582,-0.036684232758743975,-1.0249635175573626,-0.05943225510178621,0.27656836597131496,0.7499015864794212,-0.5700091577120852,0.15803107711327075,-0.7188270861562354,-0.4504271586358207,-0.4471839141568244,0.08382104409380839,0.9359732616570328,-0.28889302079111917,-0.06443361572811157,-0.02737840635655461,-0.17986691253413137],[-1.2297921016418398,-0.48994468653635537,-1.0104183010635837,-0.21542142592257837,1.0008647121277952,-0.14652180060337813,-1.383436227344557,0.30776406975673426,-0.596393357180467,0.9273773898766728,0.6735728742723959,-0.16326060095074393,-0.8573952700917569,1.1073424390874484,-1.0670836064084155,0.5670405216281047,-0.4384345123060334,0.5771112516968293,-0.27074958409893896,0.2850539506770795,-1.0978452791456246,1.151957325389228,0.46470194779526747,-0.27999023632694814,-1.0332612596853374,-0.7178602734873455,-0.09929088820771266,1.095307461822835,0.018081629066335342,0.3806846113318914,-0.6384226534860702,-0.5548625894569981,0.21057988491149154,0.712498369996923,0.4099582986141446,0.23529465571278782,-1.1358894555202357,0.47957971856021525,-0.07009379753486433,0.9307327244515232,0.5785519171185008,0.2155853442835127,0.11530014167770657,0.2919872625146046,0.29997047847655356,0.7300737649736166,0.9657549894040623,0.9054604897419383,0.5955141173358394,1.4299785563350624,0.2756651487522625,0.03821390338767514,-0.06372748879985368,0.7129442989685356,-0.5014800849269817,-0.4597297669810538,-0.1340757249100813,0.5073194466613924,1.1009029410695343,-0.7671223896250067,0.17741038447091717,-0.32602533413454104,-0.2998115268359032,0.5331805966435579],[-0.20451820245674204,0.7686955456260083,0.7875419386344327,1.2679699608164008,0.42731683136179655,-0.33589876781850725,0.5154930392813204,0.20845196228274301,-0.14060487953145456,0.25413023302094256,-0.19438142556477492,-1.3120783123950446,0.3660527295459729,0.2498805324865582,0.6408087106519846,-1.1782975626220735,0.8521949985125609,-0.7874447345128804,0.19721734306721533,-0.37472277935599396,0.3058226526635211,-0.5417675568790803,0.7961074036921185,0.2665017189390168,0.28304015800381294,0.36245870931097535,-0.19774941500852514,0.421702701055345,0.06213228870097061,-0.2216439305360366,0.32006428932015996,0.19423071800077188,0.06628059303810391,0.8085824044208927,-0.2664580271929194,-0.8395362293586714,1.029953563370897,-1.5076715038765245,-0.015919592210544713,-0.8248831714492398,-0.8316611454016387,-0.06089241801464883,0.254555204050355,0.8489153162346019,-1.028931835553619,0.11772358536296565,-0.9656502929749549,0.09514065428380702,0.42756501274811387,-2.010546501214202,0.131209567224908,0.3636830474260341,0.5069937649585705,-0.6197023000043542,0.8640226736298127,-0.07619750678898911,-0.3024216512329224,0.7838541747712967,-0.9845556818067602,-0.1755504342763717,0.9285429074086338,-0.4935899936382047,-0.6666458434234557,-0.1810911571799467],[-0.180168298194878,-0.47217659344025154,0.8698304012540026,0.7172450947651305,0.6114375711510407,-0.7152363214010828,0.588774666309994,-0.20160013771222918,0.5582088487803998,-0.6748501536576619,0.6425273779973482,0.9422929150570465,-0.17927899033050076,0.8341545231357772,0.34466995004717216,0.7723335483011982,0.7752305894058882,0.48584468215727394,0.3299839234093689,-0.20267491513830693,-0.5210668446482494,0.7312340455588784,0.5896795856757362,-0.3300832425238225,-0.18173211719272175,0.40483458297478747,-0.694576581899782,-0.7542383144774079,-0.4589867731292616,-0.36585780065286366,-0.9958005340112097,0.663170034750789,0.9061207412231498,-0.9771784915519908,0.12049016395021406,-0.0693781807130025,0.7809393275611556,0.12718151128431932,-0.8207824351379014,-0.16041577534483387,-0.3263175851373472,0.35686306435351733,-0.4976628587009244,0.412654321579043,0.4096961075018517,0.6044859101359095,0.5939312780091606,-0.4478713967887753,0.943288532957919,0.14533299647242504,0.17310092243925856,0.07167619762317412,0.14258312916981808,0.6469757396322329,0.20090855124235873,0.873873194486954,0.29306310740947783,-0.5099259568340142,-0.8129227633520171,-0.32106819725338,-0.4638234528561054,0.02541149266152054,-0.43589446475916227,0.4150376243070617],[0.878555433954926,0.9809088416991285,0.14828489907055942,-0.08474310139915175,-0.03764148699609016,-0.004946754944552323,0.26027952672343324,-0.6238887769217691,-0.5311519558819713,-0.167900966823191,0.47405614598273793,0.7100147657157816,-0.21412445576324934,0.6325256504270234,0.2840345726251259,0.22389768321377268,-0.9797706116889522,0.9211622826190378,0.3633189468627396,0.5238475984478419,0.6077392082294621,0.9110014218285925,0.6017207337600092,0.22155014632628833,0.35223079266922364,-0.3072742320530366,-0.4295346697158482,-0.2479403474617201,0.15901712894552378,-0.6367672731167366,0.41461940289074106,-0.9319027889092562,0.7149397181560209,-0.28910714492558465,0.4418552799031521,0.07177795867280423,-0.5841974560709313,-0.7977677261117371,0.006245640630476723,0.3028704683184342,0.9533692914992995,-0.29581766114327546,0.6783611465542716,0.6233963819434052,0.14792194200193265,-0.3720076303740989,-0.8519797558131919,0.4215799225078285,-0.151292207039879,0.9953552026281283,-0.17637954754526808,-0.7961392975372426,-0.9765706704921573,0.30424759052329153,-0.3279437487139578,-0.6481132276166455,-0.480739619207184,-0.9885585621119679,-0.5141909362351813,-0.7078931194254967,0.4016989467516634,0.9505939849754115,0.4688716655354761,-0.6412146549383162],[-0.9307203480390933,-0.19925283776281733,0.22696509478581528,0.44792900879026387,0.4952773148641656,-0.3321577467078376,-0.049892464343569864,-0.26918823255904956,-0.8681178905017728,-0.8558489200127066,0.357842326813155,-0.2981305603876656,0.7339625537334595,-0.7417947404773344,0.852461353245729,-0.2055741080897091,0.7309369968740747,0.6008428767749716,-0.5115043502660532,-0.2664147351071209,-0.06020247781802168,-0.09157197316724952,-0.37208294087593985,-0.976784610950054,-0.24923874430261694,-0.8012694698858622,-0.5657912894869768,0.019068975086428352,0.3700829226371618,0.24175300590144144,-0.998247576243025,-0.8786934294263071,-0.7309840615947729,0.4153712881529461,0.012684054634878983,-0.33148610342627705,0.11486116233374499,-0.6742678866817355,-0.5284297245642937,0.22663384291311384,-0.8505029999735427,0.9649299976590038,0.28896421624426627,-0.8599387283216977,0.23273683760797415,-0.3664370765640852,-0.7318994325951027,0.4484782559293501,-0.41768677423966283,-0.6266538359540996,-0.6053071344795014,-0.42816669121482764,0.6192409852087972,0.2350390988941966,0.23799967452443305,-0.4728015356639199,0.2667651174303245,0.34952103423510184,-0.2579701543411712,-0.1349349923138896,0.5530519290336575,0.47492738251470423,0.7189587439072558,0.9989664487475804],[-0.8835791777970348,-0.05255521826139179,-0.165464587052349,-0.04885173154944446,1.0797630044956212,0.7531000428787479,-0.2539865477083374,-0.7645358136056197,-1.07974564464036,-0.997108312602038,0.9268265278899928,-0.8904334071408709,0.2170872006721442,-0.4609342336139314,-0.007077424479354574,0.17124915303120047,-0.42432530484834646,0.5590414910758977,-0.2693000093873325,0.40078176234355745,-1.0529879234146302,-0.35422549751164867,-0.15015292044003678,0.607882749018647,-0.5644057950945294,0.41379693611295604,-0.12451884941682977,-0.4064654597930922,0.5655478971647939,1.1321115471324015,0.1648400922857455,0.006378092189839444,-0.7952648593535411,0.2988616073267297,0.14554360774122413,-0.03642810569905909,0.8476576869097879,-0.23300945048012542,-0.031184149952345235,0.8139151592166599,0.36750313973012716,-0.5016027589820821,-0.35566141204714186,-0.7768367090292471,-0.16251238751877672,0.566444929052929,0.18697103737837711,0.9256380633241383,1.1547886935726082,0.11995023482208238,0.03422201629726265,-0.023591056393368937,1.2539354062233738,-0.23055140084424902,-0.02220225035395736,0.18423219567110893,0.6280023345201288,1.114114063380158,-0.2647204613171522,-0.828292167275528,0.23969486954523334,0.4233693298061555,-0.05951749077098225,1.0938380367287783],[-0.23437238085994871,-0.09729451110927911,0.9009681645990857,0.19810006231294852,0.45818740782703604,-0.7289185351791598,-0.9184843026167768,0.6883385236384163,0.6205442508658174,-0.8714646914280182,0.8330786669216772,-0.5020211910141024,-0.12897224964632836,-0.9758458877682732,-0.5308712117233929,0.5948765524425967,-0.6090399140264298,-0.043783152274292414,0.19255968695760983,-0.48207803071057476,0.6492543428077104,0.8021098911898115,0.19546161226331327,0.652140531838038,-0.07903978226493624,-0.38241665961200666,-0.4476138470797144,-0.8468053307698613,-0.5412952240983,0.901112703041943,-0.8814135190774346,-0.8663485931675396,0.2716788664694816,0.9679572779330019,0.7716745138731484,-0.946539256122291,0.1250235389837382,-0.3101629530704939,0.024586741753786168,0.6496660358587523,-0.40682672810655207,0.029975382801410655,-0.7102939304601825,-0.8045531896434586,0.7839168642289092,-0.9604153468668408,-0.11156198213623836,0.3961721589488598,-0.30436166252861074,-0.7192999764198378,0.2774945234792541,0.8102209315486535,0.078405435526818,0.0015933447269320666,0.9025901178189484,0.3249036215736827,0.14027463724439104,0.8148290718953681,0.5922099621848256,0.9228978355793582,-0.5266141373648907,-0.8856489593003405,-0.5314389976168012,-0.2578111786763335],[0.016817013693510185,0.9797714701166904,0.2625834086659873,-0.7421851613459858,0.22372722510586085,0.8468565864975504,-0.6555555420143158,-0.6988270148621007,0.8747195388902069,-0.5290782395819009,-0.19962890304649616,0.30482749233942164,-0.8012661433691113,0.6605278079258483,0.19812747968508715,0.8940730710764058,0.5685744368628467,-0.5839048776457951,-0.3267976462280435,0.160103003943322,-0.5742708690827782,0.947678010765941,-0.32804259004334946,-0.4732702857580209,-0.5338691123440897,0.10439225893907156,0.751403961654719,0.5287896964537055,0.46387584651930736,0.9582331332326646,0.8292216950935551,-0.5118669490168097,-0.8412596510956889,0.41197377772547417,-0.39228526191850577,-0.2686977612109174,0.7446672652931896,-0.6097131312561515,0.2879765397601859,0.21370662016874054,-0.3297796018133239,0.4251855654964676,0.1456135751165204,0.19830345594177023,-0.3016671411617431,-0.7386661887438057,0.056956034130670075,0.982498543684305,-0.5284946582384924,0.48372746710661185,-0.35523767971624376,-0.42481693029926726,-0.8100637493479423,-0.8902974994374737,-0.6449987492226128,-0.3034738216273887,0.43389511331092123,-0.4108211282591372,-0.518625042888837,0.5063462374771455,0.6479784757724212,0.7215013933984216,0.9218229043329178,-0.9374135896893614],[-0.6731752731746194,-0.6256245394129232,0.4050169047797012,0.8244326829078932,0.04799633328072818,-0.1260490468486441,-0.780979350668139,0.09736588313226605,-0.37417656214217293,-0.3177079110283323,-0.6197831150216884,-1.2904441735256642,0.9297830564129742,-0.5821836762580526,-0.16179203579847912,-0.18379158554054026,0.5592172817633398,-0.3528868118212659,-0.05710347124195659,0.04864833451346047,-0.7021822483778158,0.11467927046340332,-0.7780305979583713,1.0238250533352222,-1.2014430901498936,-0.6205672088604626,-0.12040701948245475,-0.637340688997546,0.9820680440458464,0.36258487966860237,0.13179924993541772,0.938061224347434,-0.22653140794486754,-0.08146560994844464,-0.5230836689033205,0.44825920086855725,0.505686861317602,0.5475690583066569,-0.3320040524125857,0.43501424396605154,-0.44795174851277536,-0.18761851932969717,-0.8456110223319253,1.0855527025739902,0.9078401550673323,-0.28543915892142674,0.9344494477812055,0.08261561579743734,-0.24914718892762025,0.27009765499202154,-0.8147070680099779,0.1780204977402474,0.7288269250828233,-0.414280956675319,0.4056286808616783,0.10634820849860774,-0.7958917305736897,0.7889694683978232,-0.4099246837632966,0.11371165810482194,0.3192557922769453,-0.24583923474761116,-0.8529184350389132,0.7027685557216397],[-0.28553607123012,-0.026889595791049686,-0.8035735769901459,0.1606861680574903,0.4618637754265892,-0.21876778740554553,-0.4575495117033664,0.3572677522002406,0.7868339167673277,-1.2508930491314767,0.4112493541130809,-0.3411205504156925,0.1228729973318053,0.4239957663419655,-0.5283459561774784,0.13864836898884583,-0.45198374672818903,-0.1838608032192507,1.497805757940239,0.7406987084270691,0.8089321100035652,0.06284950455231299,0.7636509144379462,-0.5261328301982832,-0.23840402469563046,0.48662719227562046,-0.17660608088519847,0.9157549974833019,-0.3858173417583434,0.1631443552815471,0.3302600220020309,0.10996162276039005,0.48075473324131973,0.7673898743571129,-0.025060573836461056,0.4158029223186353,-0.24725554281003886,-0.013493414802075518,1.2291384008545403,0.5342536855541937,0.00895024924298738,-0.9026268692698453,-0.29983603557338134,0.7423961992446498,-0.8858615212008425,1.109712655344256,0.7792089262862453,-0.10300395753055962,0.9683810957056652,0.5566352450059322,-0.8927244124558408,-0.48529717136860734,0.8365892931115617,0.13412749277830752,-0.3757753353505796,1.447294435010737,0.561009402326169,0.5039719201282203,-0.12446788999916499,-0.3519360152520957,-0.4552343303822808,-0.117274917467509,-1.0477174375022886,1.1187584879188193],[1.0299578574823698,0.8676518566952789,-0.49227869279832615,1.1523500130549826,-0.6603593172946806,0.3511230554126526,0.2722810791991084,0.36472372069001063,0.3444617578273342,-1.2196585091285184,-0.2216852897419285,0.22074681585984265,1.0776909121636993,0.0028819617170999703,0.4684065596615767,-0.6634740215107311,0.4650717152583754,0.13228350925318982,-0.42083519226248955,0.13872655708087428,-0.5663994899947224,-0.716209868472996,-0.64076203465326,0.1599126862570259,1.5919909205744074,-0.9033055915439587,-0.3367302137827225,-0.28536891051252355,-0.5131910459010675,1.0523256756359651,0.5664933474941866,0.8290174404615306,-0.27077002395442573,-0.09674555153042029,-0.4646774778764096,0.4453814703647148,1.3549125557031274,0.6736045672767177,-0.2222131857134089,-0.14411724644634366,0.21267369764006006,0.5730072461675177,-0.417735447796791,0.36971762480219733,-0.26892852905665837,-0.21691286747771615,0.757743288581597,0.06054875305233913,0.3355064516471978,0.3499948946566089,-0.6608348529019574,0.44765147244275605,0.5446417338015914,0.5703345932312721,-0.37714114503360985,0.17824645550438292,-0.7969705396762792,1.2746447430259347,-0.5115176473712801,-0.14326773751222424,-0.7418762390878605,-0.5976838119042441,-0.8543888839871203,0.9239525482266541],[0.07900565732062041,-0.6388414846442388,-0.0455679635224739,-0.6843710745852328,-0.4448670992309,0.29872442793709814,-0.6599140015980054,-0.7247852302262805,-0.8441732809678518,-0.4656306325229712,-0.012037126866024867,0.6906215297561341,-0.34293801105170807,0.32427465189841154,-0.6879610882450262,0.45567358108489164,1.0438000797973537,-0.381313465140454,1.2196224423371276,-0.43803842485527383,0.7126587361672396,0.8433523220882337,0.10569960987684764,0.48968543269751785,-0.7754216157167299,-0.6378796649640687,0.5168621918797026,0.9965107277092524,-0.48627695989713593,0.41646680079170323,0.02344672686408896,-0.5135686110603725,-0.6084350286717035,0.7427620157972242,1.080059073675426,-0.5301119299520519,-0.9273855039560733,0.2198831647198961,0.41339111923165434,-0.2784778074141278,-1.054670605044586,-0.35126861317783076,-0.5692795708196504,-0.30678813576783154,0.5098499962319527,0.3198357562009315,-0.36523067111021806,-0.1258297830783129,0.692522175275418,-0.9800916194560296,-0.34139839792476867,-0.6040345296062336,0.032470780250800704,0.9059073359146416,-0.3682840589499075,-0.6147363001839192,-0.08562299830256491,-0.5696245439290282,0.8363892645127079,-0.5488479262094702,0.598903417621013,1.3360632052404244,0.40975675995688854,1.0118347141807666],[0.9464725047654876,0.3058040638385435,0.6833255834003349,-0.2606302864293364,-0.5568103149615657,0.17517772490198125,-0.5698630778067681,-0.12871761405763937,0.4861780564308562,-0.13488823490482904,0.9836463732428549,0.7503172606552777,0.4217534882562255,-0.7400593448412227,-0.4529570267984244,-0.7756081495592013,0.03256261805114691,0.7022921840965008,0.5302471888338245,0.9046931406762588,0.7572023145385991,-0.34638834990206746,-0.7774888685371579,0.0205539956719909,0.31129946425483257,0.24731219700054807,0.31279913628621014,0.608636712802868,0.2359916590966573,-0.6355052917981878,0.05830263718752127,0.9798431873227365,0.5892014462055639,0.2547591941496117,0.12214612529464164,0.5812011673618005,-0.7529497386717225,0.17970835447991873,-0.11545489158654099,0.6063025758006764,-0.9027881304083099,0.07432033893036816,0.37737878251872803,-0.9933010072811037,-0.2170429728565899,-0.19855138372160575,-0.0996557353247216,0.9179873440351607,-0.4039044657212061,0.21728209533848664,0.8475620236054455,0.9381463142450384,-0.38102577366098545,0.970678687120129,-0.6932949004694382,0.18201319919092973,0.28014230582215593,0.7268632000387127,-0.4115718730810629,0.5846182622902825,0.11524971147486496,0.3360577875394628,-0.9979248615020364,-0.4625781333873955],[-0.6398072875588208,-0.08565179742207452,-0.38467184061038595,0.5875007333381084,0.3259217989306793,0.41082230720371693,0.8886767822800166,0.9993210018950927,-0.9102537261185988,-0.27410536997402213,-0.8867574206837454,0.6914913990932399,-0.21887177592224272,0.014959941983579306,-0.04739903439021176,-0.13758079919192356,0.9320529097792964,0.013306627577927,-0.6889547678813157,0.7666168101413686,-0.393422053923542,0.6594311846146184,0.8415698963541658,0.8651092271028362,0.6114846863008196,-0.1438281897102509,-0.2577380487252803,0.5839060002912451,0.19922602639182507,-0.7987344234540565,-0.9342284288523905,0.4271811401582033,0.06694213654283487,-0.26036411530596104,0.9403591261512054,-0.5562434824491693,-0.08960537529021817,0.5729203476225249,0.33734687637653304,-0.1400610573967116,-0.6907527239734972,-0.4925467079550947,-0.6813713543357991,-0.9312873937708941,0.30019958097133115,0.8301182758980528,-0.9407782474318871,0.10474297893237927,0.6370575546534762,-0.2278087980658383,-0.6363289444217071,-0.7633996756047821,0.44190456181190707,0.25449596953664466,0.8814448383165305,0.37206534747353803,-0.2808873307816906,0.10289926559128504,-0.22470987054963754,0.5993311212509855,-0.9659862991532295,0.08137321060297431,0.20784190502979327,-0.6236298628857257],[-0.18944242456749616,0.6856109877901104,-0.3673128948442592,-0.4220834394808022,0.922957703478952,0.035800815218977045,0.3621318275566856,-0.20836165367000525,-0.34838435749716523,-0.4097655859002882,-0.837599742983582,0.37889686649299437,-0.5427034915435414,0.01199821130491352,-0.3836966186166282,0.4951322165475489,-0.7300653851409835,0.12423957687070297,0.41183814922961837,-0.3716814110136617,0.45328699822698404,-0.9131183770393225,0.6625474114100056,-0.2672580288637183,-0.3025546749802599,0.3158481489271816,-0.9833917092218907,0.32480059851107446,-0.29793987716504855,-0.34928139770374833,0.8325424135418613,-0.8741498955798275,0.7338345534438973,-0.5494380115100568,-0.048605730383905366,0.2921936343272331,-0.07495202855060845,0.5340260235607586,-0.590323370953687,-0.21010494357076714,-0.47442762071469113,-0.8214131779923377,0.8143357980445582,-0.9478286653824657,0.22904869964281183,0.7551914397906996,-0.9595577731868117,-0.30030082053464957,-0.835407575760631,0.998354733879681,-0.5857350767598231,-0.190752110500078,0.17860079563075915,0.3980996479807559,0.6088420267882764,-0.016370482273107223,0.6269384418753527,0.7489577690060598,0.10611156662155685,-0.6939648463323467,0.055979471038863915,-0.49742357028860984,0.2691216488669719,-0.845595923405883],[-0.06737451602371407,-0.20579945113301606,0.982918113795531,-0.027512218127133326,0.38363407448050413,-1.1635181738356133,1.645739292069727,0.18113786683943145,0.90238848090467,-1.1189396126690991,0.04826594634586775,-0.7829991651689477,-0.4014469745081079,0.40680383885980714,1.479322977981659,-0.025254005354821092,1.072308723206814,0.05179500487313924,0.1482003578009567,0.7069646280863592,0.802571216145342,-0.5311657189669086,-0.14858066938658215,0.3949681714115697,1.0655549599424476,-0.5154215132531429,-0.033294016721156894,0.9564157572004326,-0.8356712582960787,0.6736400967819874,0.3256358571920754,0.3875684309203027,0.853729964631393,-0.5423026375321741,-0.21646629068970782,0.4808656941978625,1.4386358758580453,-0.04172307565377345,-1.1946013835558422,0.9630424013541006,0.46753885250997745,-0.6942439779280069,0.37589047494280725,-0.38984186665481385,0.5601156151272737,0.5231059507627829,0.5349544029734562,0.536832749893226,0.40967056481621217,-0.6945521264077508,-1.2835689620855841,-0.4899126189639056,-0.42041904774329586,0.45265258863284763,0.9962830163383289,1.0467169798470477,0.09119740604447288,-0.6840494545937215,-1.157705556538556,0.13278616422055908,-0.03718915127001129,0.1901133513800049,-0.7827714960951676,-0.20698855565841084],[0.35481722720953957,-0.47887322312652025,-0.43491434582093724,0.3657079855527794,-0.5205065481367204,0.5192861330318765,0.4754510649957173,0.45015457782581336,0.0666108232487983,-0.7805077638603468,-0.921164325413661,-0.6124125306217325,-0.595032632453917,-0.3923632246674109,0.8335495826430193,0.49735504928665186,-0.06651385130519194,-0.23530988729167346,0.8131695968111519,-0.015710421809679076,0.8233549076063265,-0.3563935111561509,-0.4663172598573482,-0.34952673183123495,-0.7897775981730355,0.24770503279447897,-0.2860800076567138,0.8261382904228385,0.4168446677252513,0.358048611422803,-0.8846626246978124,-0.23805197599632333,0.7585275889756506,0.4124207316025015,0.39040553286308,0.9612374687472052,0.338164397595907,0.6560787208318808,-0.7854301452201933,0.2296166439253784,0.6146216631452988,0.2645391676680269,0.8849488529088361,-0.41932961482745124,0.46767814697738674,-0.21876925771735678,-0.9603602949890666,-0.4396845456639271,0.9846760755228328,0.9179263438568208,0.18470393963209175,-0.9612958787449222,-0.7415037099390076,-0.4665541961541917,0.31160912109660477,0.06739149882285789,-0.8865777818981826,-0.5638024473990282,-0.9538943138040865,0.010811823629701234,-0.13508925380882109,0.5487067547480831,0.4902207108119707,0.8349378853162321],[1.268935167527153,0.15750961356560278,0.25192461500892654,0.6907623332117467,0.3801736649297287,0.5423129031536522,0.8368725612067982,-0.9362313266363905,-0.923967823071885,0.6926143022355263,0.4166777440297079,-0.1853520182950729,-0.06779509260108284,0.6807455948241857,-0.3270882393410747,-0.6015201917554269,-0.3894819857920631,0.2819893168507265,0.4894307613143867,1.0540520702976761,0.7849510654086661,0.7220438741427883,0.17330834648303853,0.4822982628665959,0.1724247049888884,0.2965095579488251,0.8453274941893321,-0.6319024972071229,-0.6370393556366619,0.052922798163129864,-0.3382127534626698,0.12833493621225128,0.06522447513470533,0.4649805984589729,-0.30937077322038925,0.6953628272602925,-0.3882901216342428,0.4256064835899268,0.2959197861996299,-0.39401824785507855,0.5587761930415268,-0.5590913541051542,-0.2263940987771847,0.7456812742904577,0.433269698120714,-0.48405089217841735,-0.16561361720928922,-0.10183804038908588,0.6848250959572276,-0.3541277925245527,0.055195127832688436,1.27408274964956,-0.49690022696013425,0.47084614901200766,0.0655543626345581,-1.1308271593311736,0.7402274500351269,-0.7763101341271713,0.8150928673205848,0.3050801443288788,0.0757920498101058,0.6730217235982584,-0.901972485493462,0.6830177829258013],[0.5102245134440937,-0.5186634103929211,-0.9750439186884658,0.5854104819990744,-0.49264515157856237,0.4490067207017012,-0.9200715960867147,0.6545924256813058,0.5986893884700755,-0.21686212782244296,0.6205261238077899,0.5938849172722189,-0.15822431214173505,0.14602029980601827,0.40062419970712604,0.2062218131363911,0.7178254367229329,0.4642141093650467,0.37128431963354425,0.1835209470122967,0.4559890372453046,-0.504642950316178,-0.40144100833070184,0.43014596208470013,0.4334989788160799,-0.41519101691900007,0.09557391613789612,-0.0626814109813445,-0.13976137185405846,-0.5831189485484605,-0.7762653076301735,-0.6264175177736344,-0.2605027314374273,0.801726705857392,-0.867643307867844,-0.9260037216858046,0.44237425520666673,-0.16220057583239256,-0.9170287944995072,0.6908123396145245,-0.8585006493642866,-0.8488906134265466,-0.5559868726573929,0.4109753540857981,0.8204383471288708,-0.6636589733379274,0.6435487819209964,-0.6491458265338856,0.6083568420609242,0.21121986174999008,0.4321557277093262,0.5061967822635189,-0.21478142607279116,0.04434632062222854,0.43501984237818014,-0.5346224452151287,0.9609964098267167,-0.47195818966607095,0.16176710931817295,-0.013415987764192838,-0.34692115236706766,0.9415807381228531,-0.6054980520834727,-0.5053321179749719],[-0.3134903670026148,0.18897597112208886,-0.42903648073487477,-0.6506191871697298,-0.8254158573412365,-0.3992352014583809,0.5894557654863977,0.32697457037786304,0.9101806440307822,-0.31221665099964024,-0.20474424609050623,0.04280906335276824,-0.4671306919864584,0.3424236415093387,0.3264231337333403,0.7756251639369005,-0.42783748120967635,-0.9289486276588486,0.9477496146362618,0.6509118686032818,0.7152809460397016,-0.03444825371490845,0.5951985113969489,0.9468416082814695,-0.4998923343891668,-0.19893271177499927,0.22227165991634834,-0.9628295180882416,-0.48067115156591544,0.4460240742260886,0.8946540145773354,0.9941136576364837,-0.5419122219313492,-0.4150047126810452,-0.40293588524159385,-0.7800910216927217,0.5863069269034897,0.13190517255999,0.7963168559320615,0.38398566305672754,0.6881607580462383,0.6505283154137589,0.44718284326767654,-0.5866424101896384,-0.16498907295721343,0.6011933760094768,-0.16729276488465827,0.31706373313735736,0.8944422373030627,-0.7029471333502217,-0.6017715369795291,0.2211819475580059,0.21686730067509252,0.08023397310701275,-0.43158419101458523,-0.8508550915755018,-0.44750508381546394,-0.5823613705603288,0.42922303943774875,0.8027903793035993,0.9252857884588419,0.3681137036714297,-0.88826724864484,0.88278108293865],[-0.8128339145583714,0.7324449846057686,-0.6672676578435746,-0.3079521750176961,0.7123494978103406,-0.17535874602334878,-0.7004103313838492,-0.32054423278071265,0.6119042455155788,0.3380338089657331,0.5734998559808404,0.3035440483072678,0.5811832417747205,-0.5110126853780508,0.8036242874243775,0.4519195290985325,0.13585104187088737,0.011178676523754483,-0.11795505718596289,-0.030327495358182466,-0.22220396762736794,0.6866394835146898,-0.4538829451777482,-0.6957344101198553,0.999148903064663,0.42970195006706313,-0.5296744811322394,-0.32178918479724894,0.8417532731347568,0.6514497434225188,0.9019057542228974,-0.6068884171776239,0.543888075762675,0.14985082767159574,-0.7598082837072349,-0.8325257911280517,-0.8170058813578103,0.35082914996144154,-0.13214195272469986,